{"learner":{"attributes":{},"feature_names":["STATE","District Name","Market Name","Commodity","Variety","Grade","Min_Price","Max_Price","Modal_Price","Demand _Index","month","year","week","day","arrival_lag_7","arrival_lag_30","arrival_roll_7","arrival_roll_30"],"feature_types":["int","int","int","int","int","int","float","float","float","float","int","int","int","int","float","float","float","float"],"gradient_booster":{"model":{"cats":{"enc":[],"feature_segments":[],"sorted_idx":[]},"gbtree_model_param":{"num_parallel_tree":"1","num_trees":"300"},"iteration_indptr":[0,1,2,3,4,5,6,7,8,9,10,11,12,13,14,15,16,17,18,19,20,21,22,23,24,25,26,27,28,29,30,31,32,33,34,35,36,37,38,39,40,41,42,43,44,45,46,47,48,49,50,51,52,53,54,55,56,57,58,59,60,61,62,63,64,65,66,67,68,69,70,71,72,73,74,75,76,77,78,79,80,81,82,83,84,85,86,87,88,89,90,91,92,93,94,95,96,97,98,99,100,101,102,103,104,105,106,107,108,109,110,111,112,113,114,115,116,117,118,119,120,121,122,123,124,125,126,127,128,129,130,131,132,133,134,135,136,137,138,139,140,141,142,143,144,145,146,147,148,149,150,151,152,153,154,155,156,157,158,159,160,161,162,163,164,165,166,167,168,169,170,171,172,173,174,175,176,177,178,179,180,181,182,183,184,185,186,187,188,189,190,191,192,193,194,195,196,197,198,199,200,201,202,203,204,205,206,207,208,209,210,211,212,213,214,215,216,217,218,219,220,221,222,223,224,225,226,227,228,229,230,231,232,233,234,235,236,237,238,239,240,241,242,243,244,245,246,247,248,249,250,251,252,253,254,255,256,257,258,259,260,261,262,263,264,265,266,267,268,269,270,271,272,273,274,275,276,277,278,279,280,281,282,283,284,285,286,287,288,289,290,291,292,293,294,295,296,297,298,299,300],"tree_info":[0,0,0,0,0,0,0,0,0,0,0,0,0,0,0,0,0,0,0,0,0,0,0,0,0,0,0,0,0,0,0,0,0,0,0,0,0,0,0,0,0,0,0,0,0,0,0,0,0,0,0,0,0,0,0,0,0,0,0,0,0,0,0,0,0,0,0,0,0,0,0,0,0,0,0,0,0,0,0,0,0,0,0,0,0,0,0,0,0,0,0,0,0,0,0,0,0,0,0,0,0,0,0,0,0,0,0,0,0,0,0,0,0,0,0,0,0,0,0,0,0,0,0,0,0,0,0,0,0,0,0,0,0,0,0,0,0,0,0,0,0,0,0,0,0,0,0,0,0,0,0,0,0,0,0,0,0,0,0,0,0,0,0,0,0,0,0,0,0,0,0,0,0,0,0,0,0,0,0,0,0,0,0,0,0,0,0,0,0,0,0,0,0,0,0,0,0,0,0,0,0,0,0,0,0,0,0,0,0,0,0,0,0,0,0,0,0,0,0,0,0,0,0,0,0,0,0,0,0,0,0,0,0,0,0,0,0,0,0,0,0,0,0,0,0,0,0,0,0,0,0,0,0,0,0,0,0,0,0,0,0,0,0,0,0,0,0,0,0,0,0,0,0,0,0,0,0,0,0,0,0,0,0,0,0,0,0,0,0,0,0,0,0,0,0,0,0,0,0,0],"trees":[{"base_weights":[1.947664E0,-3.748647E2,5.1841787E3,-1.1357319E3,2.737223E2,5.148536E3,1.6017149E4,-1.3811571E3,-7.961873E2,3.1064728E1,1.3707253E3,4.118357E3,1.007144E4,-1.6041793E3,-1.2574644E3,-9.117402E2,-5.813018E2,-1.2054024E2,3.186532E2,1.0263986E3,1.8064012E3,3.1596428E3,5.443433E3,7.9875967E3,1.3777374E4,-1.8310762E3,-1.5426484E3,-1.3369374E3,-1.171603E3,-1.0158876E3,-8.335236E2,-6.733552E2,-5.2575055E2,-2.6104532E2,-2.6758049E1,1.9332028E2,5.305856E2,8.3897833E2,1.1782823E3,1.6145956E3,2.1428213E3,2.7934993E3,3.8000417E3,4.9559243E3,6.1118086E3,5.275292E2,8.41096E3,4.9477977E4,1.2974414E4,-1.405419E2,-1.2487715E2,-1.1213421E2,-1.0371852E2,-9.621411E1,-8.955344E1,-8.511675E1,-8.037502E1,-7.3899574E1,-6.7692696E1,-6.1080135E1,-5.4637295E1,-5.0332386E1,-4.554821E1,-3.9587162E1,-3.3316902E1,-2.5318712E1,-1.4414053E1,-5.5082307E0,2.2476237E0,9.929035E0,1.9074205E1,3.0124998E1,4.279438E1,5.225074E1,6.168624E1,7.7858765E1,9.10344E1,1.0358668E2,1.1822812E2,1.3776799E2,1.5453648E2,1.812765E2,2.1436679E2,2.5332845E2,2.8972632E2,3.2834143E2,3.704229E2,4.003757E2,4.5324857E2,5.6096924E2,6.141144E2,2.159031E3,1.2167149E4,7.4831854E2,1.1433251E3],"categories":[],"categories_nodes":[],"categories_segments":[],"categories_sizes":[],"default_left":[0,0,0,0,0,0,0,0,0,0,0,0,0,0,0,0,0,0,0,0,0,0,0,0,0,0,0,0,0,0,0,0,0,0,0,0,0,0,0,0,0,0,0,0,0,0,0,0,0,0,0,0,0,0,0,0,0,0,0,0,0,0,0,0,0,0,0,0,0,0,0,0,0,0,0,0,0,0,0,0,0,0,0,0,0,0,0,0,0,0,0,0,0,0,0],"id":0,"left_children":[1,3,5,7,9,11,-1,13,15,17,19,21,23,25,27,29,31,33,35,37,39,41,43,45,47,49,51,53,55,57,59,61,63,65,67,69,71,73,75,77,79,81,83,85,87,-1,89,91,93,-1,-1,-1,-1,-1,-1,-1,-1,-1,-1,-1,-1,-1,-1,-1,-1,-1,-1,-1,-1,-1,-1,-1,-1,-1,-1,-1,-1,-1,-1,-1,-1,-1,-1,-1,-1,-1,-1,-1,-1,-1,-1,-1,-1,-1,-1],"loss_changes":[3.6572067E11,8.615947E10,1.0001203E11,6.6940273E9,2.5089202E10,6.4335774E10,0E0,1.2844073E9,8.365097E8,3.365074E9,2.5592013E9,1.3320421E10,1.6848749E10,2.2939238E8,2.0314931E8,1.7771725E8,5.994112E7,6.659391E8,7.075653E8,2.7052032E8,4.8275046E8,1.4182973E9,1.4053622E9,2.0574208E8,2.197563E10,2.5910272E7,4.492288E7,3.1926272E7,1.3572096E7,1.7258496E7,2.5234432E7,4.122752E6,1.430592E7,1.1217971E8,9.266074E7,6.819482E7,7.987456E7,1.6050176E7,4.1037824E7,4.5650944E7,2.6616832E7,2.0477952E8,1.2087706E8,2.0266189E8,2.2700851E8,0E0,3.2935936E7,3.4028044E10,5.755855E9,0E0,0E0,0E0,0E0,0E0,0E0,0E0,0E0,0E0,0E0,0E0,0E0,0E0,0E0,0E0,0E0,0E0,0E0,0E0,0E0,0E0,0E0,0E0,0E0,0E0,0E0,0E0,0E0,0E0,0E0,0E0,0E0,0E0,0E0,0E0,0E0,0E0,0E0,0E0,0E0,0E0,0E0,0E0,0E0,0E0,0E0],"parents":[2147483647,0,0,1,1,2,2,3,3,4,4,5,5,7,7,8,8,9,9,10,10,11,11,12,12,13,13,14,14,15,15,16,16,17,17,18,18,19,19,20,20,21,21,22,22,23,23,24,24,25,25,26,26,27,27,28,28,29,29,30,30,31,31,32,32,33,33,34,34,35,35,36,36,37,37,38,38,39,39,40,40,41,41,42,42,43,43,44,44,46,46,47,47,48,48],"right_children":[2,4,6,8,10,12,-1,14,16,18,20,22,24,26,28,30,32,34,36,38,40,42,44,46,48,50,52,54,56,58,60,62,64,66,68,70,72,74,76,78,80,82,84,86,88,-1,90,92,94,-1,-1,-1,-1,-1,-1,-1,-1,-1,-1,-1,-1,-1,-1,-1,-1,-1,-1,-1,-1,-1,-1,-1,-1,-1,-1,-1,-1,-1,-1,-1,-1,-1,-1,-1,-1,-1,-1,-1,-1,-1,-1,-1,-1,-1,-1],"split_conditions":[4.8E3,1.95E3,4.2E5,1.28E3,3.1E3,9.5E3,1.6017149E4,9.4E2,1.62E3,2.465E3,3.8E3,6.725E3,1.2E4,7E2,1.12E3,1.45E3,1.76E3,2.225E3,2.73E3,3.4E3,4.25E3,5.75E3,8E3,9.9E3,4E0,4.7E2,8.2E2,1.05E3,1.19E3,1.36E3,1.55E3,1.7E3,1.85E3,2.08E3,2.35E3,2.57E3,2.9E3,3.2E3,3.6E3,4E3,4.5E3,5.2E3,6.3E3,7.46E3,8.5E3,5.275292E2,1.12E4,1.9462858E3,1.103E3,-1.405419E2,-1.2487715E2,-1.1213421E2,-1.0371852E2,-9.621411E1,-8.955344E1,-8.511675E1,-8.037502E1,-7.3899574E1,-6.7692696E1,-6.1080135E1,-5.4637295E1,-5.0332386E1,-4.554821E1,-3.9587162E1,-3.3316902E1,-2.5318712E1,-1.4414053E1,-5.5082307E0,2.2476237E0,9.929035E0,1.9074205E1,3.0124998E1,4.279438E1,5.225074E1,6.168624E1,7.7858765E1,9.10344E1,1.0358668E2,1.1822812E2,1.3776799E2,1.5453648E2,1.812765E2,2.1436679E2,2.5332845E2,2.8972632E2,3.2834143E2,3.704229E2,4.003757E2,4.5324857E2,5.6096924E2,6.141144E2,2.159031E3,1.2167149E4,7.4831854E2,1.1433251E3],"split_indices":[8,8,6,8,8,8,0,8,8,8,8,8,8,8,8,8,8,8,8,8,8,8,8,6,0,8,8,8,8,8,8,8,8,8,8,8,8,8,8,8,8,8,8,8,8,0,7,16,2,0,0,0,0,0,0,0,0,0,0,0,0,0,0,0,0,0,0,0,0,0,0,0,0,0,0,0,0,0,0,0,0,0,0,0,0,0,0,0,0,0,0,0,0,0,0],"split_type":[0,0,0,0,0,0,0,0,0,0,0,0,0,0,0,0,0,0,0,0,0,0,0,0,0,0,0,0,0,0,0,0,0,0,0,0,0,0,0,0,0,0,0,0,0,0,0,0,0,0,0,0,0,0,0,0,0,0,0,0,0,0,0,0,0,0,0,0,0,0,0,0,0,0,0,0,0,0,0,0,0,0,0,0,0,0,0,0,0,0,0,0,0,0,0],"sum_hessian":[1.87285E5,1.74591E5,1.2694E4,8.0341E4,9.425E4,1.2693E4,1E0,4.6632E4,3.3709E4,7.7179E4,1.7071E4,1.0498E4,2.195E3,1.6632E4,3E4,2.1919E4,1.179E4,5.0538E4,2.6641E4,9.537E3,7.534E3,6.093E3,4.405E3,1.407E3,7.88E2,3.542E3,1.309E4,1.5572E4,1.4428E4,9.396E3,1.2523E4,4.433E3,7.357E3,2.0229E4,3.0309E4,1.6742E4,9.899E3,4.272E3,5.265E3,4.802E3,2.732E3,3.88E3,2.213E3,2.552E3,1.853E3,6.9E2,7.17E2,1.6E1,7.72E2,7.37E2,2.805E3,6.624E3,6.466E3,9.413E3,6.159E3,4.964E3,9.464E3,5.165E3,4.231E3,7.201E3,5.322E3,1.46E3,2.973E3,4.084E3,3.273E3,7.157E3,1.3072E4,1.6103E4,1.4206E4,1.0147E4,6.595E3,4.42E3,5.479E3,1.345E3,2.927E3,3.425E3,1.84E3,1.715E3,3.087E3,7.48E2,1.984E3,2.213E3,1.667E3,1.45E3,7.63E2,1.434E3,1.118E3,8.99E2,9.54E2,3.53E2,3.64E2,1.5E1,1E0,4.62E2,3.1E2],"tree_param":{"num_deleted":"0","num_feature":"18","num_nodes":"95","size_leaf_vector":"1"}},{"base_weights":[-5.0696313E-2,-3.5111188E2,4.8147227E3,-1.0567108E3,2.5398248E2,4.780547E3,1.5456549E4,-1.2836703E3,-7.413539E2,2.8927126E1,1.273177E3,3.9089792E3,9.873411E3,-1.488792E3,-1.1680865E3,-8.476721E2,-5.406958E2,-1.1040206E2,2.9996686E2,9.5375586E2,1.6783126E3,2.9420383E3,5.163347E3,9.698925E3,1.1741299E4,-1.6477361E3,-1.4121816E3,-1.2418296E3,-1.0899838E3,-9.4469257E2,-7.750753E2,-6.257365E2,-4.8912503E2,-2.3832083E2,-1.9798157E1,1.8259232E2,4.9353885E2,7.805071E2,1.0948684E3,1.5033202E3,1.9909508E3,2.603723E3,3.5334192E3,4.7838784E3,6.2004995E3,7.7374136E3,1.2686522E4,-1.26250565E2,-1.1136203E2,-1.0223362E2,-9.5997055E1,-8.959806E1,-8.358571E1,-7.9164406E1,-7.47747E1,-6.935157E1,-6.3508324E1,-5.703311E1,-5.106571E1,-4.6758278E1,-4.2362957E1,-3.6813892E1,-3.0980764E1,-2.3314692E1,-1.2970872E1,-4.415373E0,2.889905E0,9.688223E0,1.8362602E1,2.8048489E1,3.9844646E1,5.226345E1,6.226486E1,7.2392166E1,8.464249E1,9.63617E1,1.10084076E2,1.2799889E2,1.4374442E2,1.6868597E2,1.9946542E2,2.3573343E2,2.6937982E2,3.051677E2,3.5637103E2,4.2143875E2,4.6932532E2,5.126363E2,5.7015204E2,8.015201E2,1.4584199E3],"categories":[],"categories_nodes":[],"categories_segments":[],"categories_sizes":[],"default_left":[0,0,0,0,0,0,0,0,0,0,0,0,0,0,0,0,0,0,0,0,0,0,0,0,0,0,0,0,0,0,0,0,0,0,0,0,0,0,0,0,0,0,0,0,0,0,0,0,0,0,0,0,0,0,0,0,0,0,0,0,0,0,0,0,0,0,0,0,0,0,0,0,0,0,0,0,0,0,0,0,0,0,0,0,0,0,0,0,0,0,0],"id":1,"left_children":[1,3,5,7,9,11,-1,13,15,17,19,21,23,25,27,29,31,33,35,37,39,41,43,45,-1,47,49,51,53,55,57,59,61,63,65,67,69,71,73,75,77,79,81,83,85,87,89,-1,-1,-1,-1,-1,-1,-1,-1,-1,-1,-1,-1,-1,-1,-1,-1,-1,-1,-1,-1,-1,-1,-1,-1,-1,-1,-1,-1,-1,-1,-1,-1,-1,-1,-1,-1,-1,-1,-1,-1,-1,-1,-1,-1],"loss_changes":[3.1791802E11,7.4847E10,9.329784E10,5.791539E9,2.164702E10,5.669339E10,0E0,1.1140055E9,7.221555E8,2.9193597E9,2.2074102E9,1.3223608E10,4.979853E10,2.0415283E8,1.720279E8,1.5520051E8,5.115469E7,5.9176595E8,5.962527E8,2.325463E8,4.086395E8,1.224446E9,1.8397757E9,1.0836984E10,0E0,4.593869E7,2.0555776E7,2.6658816E7,1.1831296E7,1.5424512E7,2.2313472E7,3.437824E6,1.2281856E7,1.0628992E8,7.9018776E7,5.753677E7,6.937574E7,1.5176704E7,3.523584E7,4.024013E7,2.3636992E7,1.8025882E8,1.0403226E8,4.316201E8,7.47561E7,1.3089587E8,7.1952384E9,0E0,0E0,0E0,0E0,0E0,0E0,0E0,0E0,0E0,0E0,0E0,0E0,0E0,0E0,0E0,0E0,0E0,0E0,0E0,0E0,0E0,0E0,0E0,0E0,0E0,0E0,0E0,0E0,0E0,0E0,0E0,0E0,0E0,0E0,0E0,0E0,0E0,0E0,0E0,0E0,0E0,0E0,0E0,0E0],"parents":[2147483647,0,0,1,1,2,2,3,3,4,4,5,5,7,7,8,8,9,9,10,10,11,11,12,12,13,13,14,14,15,15,16,16,17,17,18,18,19,19,20,20,21,21,22,22,23,23,25,25,26,26,27,27,28,28,29,29,30,30,31,31,32,32,33,33,34,34,35,35,36,36,37,37,38,38,39,39,40,40,41,41,42,42,43,43,44,44,45,45,46,46],"right_children":[2,4,6,8,10,12,-1,14,16,18,20,22,24,26,28,30,32,34,36,38,40,42,44,46,-1,48,50,52,54,56,58,60,62,64,66,68,70,72,74,76,78,80,82,84,86,88,90,-1,-1,-1,-1,-1,-1,-1,-1,-1,-1,-1,-1,-1,-1,-1,-1,-1,-1,-1,-1,-1,-1,-1,-1,-1,-1,-1,-1,-1,-1,-1,-1,-1,-1,-1,-1,-1,-1,-1,-1,-1,-1,-1,-1],"split_conditions":[4.8E3,1.95E3,4.8E5,1.28E3,3.1E3,1E4,1.5456549E4,9.5E2,1.62E3,2.475E3,3.8E3,6.725E3,8.4E1,7.5E2,1.12E3,1.45E3,1.76E3,2.24E3,2.73E3,3.4E3,4.25E3,5.75E3,8.5E3,1.25E4,1.1741299E4,5.46E2,8.5E2,1.03E3,1.19E3,1.35E3,1.53E3,1.7E3,1.85E3,2.1E3,2.36E3,2.591E3,2.9E3,3.3E3,3.6E3,4E3,4.5E3,5.2E3,6.3E3,7.46E3,9.5E3,1.12E4,4.3E1,-1.26250565E2,-1.1136203E2,-1.0223362E2,-9.5997055E1,-8.959806E1,-8.358571E1,-7.9164406E1,-7.47747E1,-6.935157E1,-6.3508324E1,-5.703311E1,-5.106571E1,-4.6758278E1,-4.2362957E1,-3.6813892E1,-3.0980764E1,-2.3314692E1,-1.2970872E1,-4.415373E0,2.889905E0,9.688223E0,1.8362602E1,2.8048489E1,3.9844646E1,5.226345E1,6.226486E1,7.2392166E1,8.464249E1,9.63617E1,1.10084076E2,1.2799889E2,1.4374442E2,1.6868597E2,1.9946542E2,2.3573343E2,2.6937982E2,3.051677E2,3.5637103E2,4.2143875E2,4.6932532E2,5.126363E2,5.7015204E2,8.015201E2,1.4584199E3],"split_indices":[8,8,7,8,8,8,0,8,8,8,8,8,4,8,8,8,8,8,8,8,8,8,8,7,0,8,8,8,8,8,8,8,8,8,8,8,8,8,8,8,8,8,8,8,8,7,12,0,0,0,0,0,0,0,0,0,0,0,0,0,0,0,0,0,0,0,0,0,0,0,0,0,0,0,0,0,0,0,0,0,0,0,0,0,0,0,0,0,0,0,0],"split_type":[0,0,0,0,0,0,0,0,0,0,0,0,0,0,0,0,0,0,0,0,0,0,0,0,0,0,0,0,0,0,0,0,0,0,0,0,0,0,0,0,0,0,0,0,0,0,0,0,0,0,0,0,0,0,0,0,0,0,0,0,0,0,0,0,0,0,0,0,0,0,0,0,0,0,0,0,0,0,0,0,0,0,0,0,0,0,0,0,0,0,0],"sum_hessian":[1.88084E5,1.75303E5,1.2781E4,8.093E4,9.4373E4,1.278E4,1E0,4.7059E4,3.3871E4,7.7304E4,1.7069E4,1.0914E4,1.866E3,1.6956E4,3.0103E4,2.2138E4,1.1733E4,5.1058E4,2.6246E4,9.546E3,7.523E3,6.165E3,4.749E3,1.865E3,1E0,5.508E3,1.1448E4,1.5476E4,1.4627E4,9.47E3,1.2668E4,4.425E3,7.308E3,2.1169E4,2.9889E4,1.634E4,9.906E3,4.288E3,5.258E3,4.827E3,2.696E3,3.925E3,2.24E3,3.481E3,1.268E3,1.128E3,7.37E2,1.464E3,4.044E3,5.226E3,6.222E3,8.589E3,6.887E3,5.061E3,9.566E3,4.235E3,5.235E3,6.762E3,5.906E3,1.438E3,2.987E3,4.076E3,3.232E3,7.594E3,1.3575E4,1.7494E4,1.2395E4,1.0515E4,5.825E3,4.451E3,5.455E3,3.277E3,1.011E3,3.441E3,1.817E3,1.714E3,3.113E3,7.58E2,1.938E3,2.2E3,1.725E3,1.475E3,7.65E2,1.468E3,2.013E3,9.44E2,3.24E2,5.69E2,5.59E2,6.42E2,9.5E1],"tree_param":{"num_deleted":"0","num_feature":"18","num_nodes":"91","size_leaf_vector":"1"}},{"base_weights":[-7.222554E-1,-3.1875177E2,4.4743765E3,-9.824765E2,2.1784702E2,4.4405767E3,1.491557E4,-1.1746091E3,-6.8381616E2,1.6835592E1,1.2378701E3,3.7205051E3,9.7594375E3,-1.3565529E3,-1.0801395E3,-8.3739813E2,-5.28955E2,-1.12390884E2,2.7097693E2,9.467082E2,1.7352512E3,2.9397998E3,5.183916E3,9.548155E3,1.13303545E4,-1.5005703E3,-1.2847961E3,-1.1071857E3,-8.813252E2,-9.362431E2,-7.720814E2,-5.3534595E2,1.7515319E3,-4.4253137E2,-5.2607475E1,2.0609111E2,5.49089E2,7.519427E2,1.13618E3,1.5007258E3,2.0209363E3,2.3746284E3,3.5253357E3,4.791675E3,6.286028E3,7.420115E3,1.2121826E4,-1.0554307E2,-1.7009272E1,-9.260872E1,-8.50686E1,-8.337848E1,-7.308517E1,-6.964925E1,-5.4765293E1,-6.795254E1,-6.345772E1,-5.613764E1,-4.858296E1,-4.2526752E1,-2.7090725E1,1.0777829E2,2.844004E2,-4.3390705E1,-2.1098036E1,-1.1283062E1,4.6337357E-1,-1.4271681E1,1.8303476E1,2.208924E1,4.5223156E1,4.343302E1,5.8032867E1,7.582094E1,9.65532E1,9.9011566E1,1.1638437E2,1.2817258E2,1.4795404E2,9.1441055E1,1.8005829E2,2.3488565E2,3.2227744E2,3.149811E2,3.6742743E2,4.338663E2,5.205599E2,4.9526614E2,5.5565784E2,2.2393813E3,8.133111E2],"categories":[],"categories_nodes":[],"categories_segments":[],"categories_sizes":[],"default_left":[0,0,0,0,0,0,0,0,0,0,0,0,0,0,0,0,0,0,0,0,0,0,0,0,0,0,0,0,0,0,0,0,0,0,0,0,0,0,0,0,0,0,0,0,0,0,0,0,0,0,0,0,0,0,0,0,0,0,0,0,0,0,0,0,0,0,0,0,0,0,0,0,0,0,0,0,0,0,0,0,0,0,0,0,0,0,0,0,0,0,0],"id":2,"left_children":[1,3,5,7,9,11,-1,13,15,17,19,21,23,25,27,29,31,33,35,37,39,41,43,45,-1,47,49,51,53,55,57,59,61,63,65,67,69,71,73,75,77,79,81,83,85,87,89,-1,-1,-1,-1,-1,-1,-1,-1,-1,-1,-1,-1,-1,-1,-1,-1,-1,-1,-1,-1,-1,-1,-1,-1,-1,-1,-1,-1,-1,-1,-1,-1,-1,-1,-1,-1,-1,-1,-1,-1,-1,-1,-1,-1],"loss_changes":[2.6762817E11,6.2529446E10,8.702648E10,4.5029704E9,1.9905313E10,4.7746253E10,0E0,8.194376E8,7.3038746E8,2.6635323E9,2.3128453E9,1.2540772E10,4.624161E10,1.667154E8,1.6809574E8,9.88713E7,2.239703E8,1.06111277E9,4.9321536E8,3.712338E8,3.9226982E8,2.3640556E9,1.6220979E9,8.048689E9,0E0,4.863488E7,2.7328512E7,1.4534656E8,4.162893E7,5.406208E6,2.1118976E7,1.6316058E8,1.4798848E7,2.061152E8,2.9274515E8,5.0342618E8,1.1687808E8,4.991309E7,6.437581E7,4.2962944E7,4.290048E7,7.675003E8,6.291579E8,3.5325952E8,5.508301E7,8.957133E7,6.33575E9,0E0,0E0,0E0,0E0,0E0,0E0,0E0,0E0,0E0,0E0,0E0,0E0,0E0,0E0,0E0,0E0,0E0,0E0,0E0,0E0,0E0,0E0,0E0,0E0,0E0,0E0,0E0,0E0,0E0,0E0,0E0,0E0,0E0,0E0,0E0,0E0,0E0,0E0,0E0,0E0,0E0,0E0,0E0,0E0],"parents":[2147483647,0,0,1,1,2,2,3,3,4,4,5,5,7,7,8,8,9,9,10,10,11,11,12,12,13,13,14,14,15,15,16,16,17,17,18,18,19,19,20,20,21,21,22,22,23,23,25,25,26,26,27,27,28,28,29,29,30,30,31,31,32,32,33,33,34,34,35,35,36,36,37,37,38,38,39,39,40,40,41,41,42,42,43,43,44,44,45,45,46,46],"right_children":[2,4,6,8,10,12,-1,14,16,18,20,22,24,26,28,30,32,34,36,38,40,42,44,46,-1,48,50,52,54,56,58,60,62,64,66,68,70,72,74,76,78,80,82,84,86,88,90,-1,-1,-1,-1,-1,-1,-1,-1,-1,-1,-1,-1,-1,-1,-1,-1,-1,-1,-1,-1,-1,-1,-1,-1,-1,-1,-1,-1,-1,-1,-1,-1,-1,-1,-1,-1,-1,-1,-1,-1,-1,-1,-1,-1],"split_conditions":[5.2E3,2.05E3,4.2E5,1.2E3,3E3,9.9E3,1.491557E4,1.02E3,1.5E3,2.605E3,3.8E3,7E3,8.4E1,7E2,1.69E3,1.425E3,2.6E3,1.95E3,3.5E3,3.555E3,4.6E3,6.1E3,9.5E3,1.25E4,1.13303545E4,4E0,8.5E2,1E3,8E2,1.315E3,1.63E3,1.75E3,4.7E3,1.35E3,2.32E3,1.95E3,1.35E3,3.3E3,4.2E3,4.3E3,4.5E3,3.33E3,1E4,8.15E3,1.25E4,1.1E4,4E0,-1.0554307E2,-1.7009272E1,-9.260872E1,-8.50686E1,-8.337848E1,-7.308517E1,-6.964925E1,-5.4765293E1,-6.795254E1,-6.345772E1,-5.613764E1,-4.858296E1,-4.2526752E1,-2.7090725E1,1.0777829E2,2.844004E2,-4.3390705E1,-2.1098036E1,-1.1283062E1,4.6337357E-1,-1.4271681E1,1.8303476E1,2.208924E1,4.5223156E1,4.343302E1,5.8032867E1,7.582094E1,9.65532E1,9.9011566E1,1.1638437E2,1.2817258E2,1.4795404E2,9.1441055E1,1.8005829E2,2.3488565E2,3.2227744E2,3.149811E2,3.6742743E2,4.338663E2,5.205599E2,4.9526614E2,5.5565784E2,2.2393813E3,8.133111E2],"split_indices":[7,7,6,6,6,6,0,7,6,7,6,6,4,6,7,7,6,6,7,7,7,7,7,7,0,3,6,6,6,7,7,6,6,6,7,6,6,7,7,7,6,6,7,7,7,6,0,0,0,0,0,0,0,0,0,0,0,0,0,0,0,0,0,0,0,0,0,0,0,0,0,0,0,0,0,0,0,0,0,0,0,0,0,0,0,0,0,0,0,0,0],"split_type":[0,0,0,0,0,0,0,0,0,0,0,0,0,0,0,0,0,0,0,0,0,0,0,0,0,0,0,0,0,0,0,0,0,0,0,0,0,0,0,0,0,0,0,0,0,0,0,0,0,0,0,0,0,0,0,0,0,0,0,0,0,0,0,0,0,0,0,0,0,0,0,0,0,0,0,0,0,0,0,0,0,0,0,0,0,0,0,0,0,0,0],"sum_hessian":[1.88043E5,1.75567E5,1.2476E4,7.8486E4,9.7081E4,1.2475E4,1E0,4.7759E4,3.0727E4,8.11E4,1.5981E4,1.0989E4,1.486E3,1.6318E4,3.1441E4,1.5425E4,1.5302E4,5.3763E4,2.7337E4,1.0082E4,5.899E3,7.168E3,3.821E3,1.485E3,1E0,5.42E3,1.0898E4,2.7672E4,3.769E3,6.132E3,9.293E3,1.526E4,4.2E1,8.242E3,4.5521E4,2.2167E4,5.17E3,4.974E3,5.108E3,3.243E3,2.656E3,3.65E3,3.518E3,2.822E3,9.99E2,8.15E2,6.7E2,5.389E3,3.1E1,7.023E3,3.875E3,1.1869E4,1.5803E4,1.75E3,2.019E3,2.822E3,3.31E3,6.713E3,2.58E3,1.0263E4,4.997E3,4E1,2E0,3.651E3,4.591E3,1.6066E4,2.9455E4,2.638E3,1.9529E4,1.518E3,3.652E3,1.842E3,3.132E3,4.198E3,9.1E2,2.122E3,1.121E3,8.78E2,1.778E3,5.71E2,3.079E3,3.043E3,4.75E2,1.729E3,1.093E3,9.34E2,6.5E1,4.98E2,3.17E2,1.5E1,6.55E2],"tree_param":{"num_deleted":"0","num_feature":"18","num_nodes":"91","size_leaf_vector":"1"}},{"base_weights":[8.239099E-1,-3.0227316E2,4.170811E3,-9.1370715E2,2.2040813E2,4.138783E3,1.4393525E4,-1.1097621E3,-6.374579E2,2.2757563E1,1.0952062E3,3.3069011E3,8.0788706E3,-1.2814792E3,-1.00175226E3,-7.283477E2,-4.6117856E2,-1.0945368E2,2.3602333E2,8.076575E2,1.440738E3,2.5406787E3,4.3795923E3,6.5165522E3,1.1061314E4,-1.4325459E3,-1.2152319E3,-1.0658882E3,-9.3615314E2,-8.0770703E2,-6.63793E2,-5.3013086E2,-4.205393E2,-2.4348083E2,-4.981973E1,1.3028787E2,4.0672702E2,6.60016E2,9.294803E2,1.2610574E3,1.671785E3,2.246825E3,3.0628066E3,3.9103792E3,4.8444526E3,6.288209E3,5.162831E2,9.718024E3,1.9257479E4,-1.0904257E2,-9.612638E1,-8.786165E1,-8.180886E1,-7.664387E1,-7.1575096E1,-6.676104E1,-6.26475E1,-5.9297066E1,-5.404735E1,-4.852586E1,-4.350199E1,-3.8193745E1,-3.3980972E1,-3.1058393E1,-2.595418E1,-2.095476E1,-1.415284E1,-6.474325E0,1.4099383E-1,6.917966E0,1.3202515E1,2.2454279E1,3.3935806E1,4.1648705E1,4.9014523E1,6.2316906E1,7.204097E1,8.126942E1,9.192515E1,1.0780282E2,1.23918396E2,1.4526837E2,1.7249591E2,2.0386856E2,2.3368584E2,2.653126E2,2.9071362E2,3.1920938E2,3.6567572E2,4.06408E2,4.522699E2,5.8623016E2,8.6997174E2,2.6164614E3,1.17361E3],"categories":[],"categories_nodes":[],"categories_segments":[],"categories_sizes":[],"default_left":[0,0,0,0,0,0,0,0,0,0,0,0,0,0,0,0,0,0,0,0,0,0,0,0,0,0,0,0,0,0,0,0,0,0,0,0,0,0,0,0,0,0,0,0,0,0,0,0,0,0,0,0,0,0,0,0,0,0,0,0,0,0,0,0,0,0,0,0,0,0,0,0,0,0,0,0,0,0,0,0,0,0,0,0,0,0,0,0,0,0,0,0,0,0,0],"id":3,"left_children":[1,3,5,7,9,11,-1,13,15,17,19,21,23,25,27,29,31,33,35,37,39,41,43,45,47,49,51,53,55,57,59,61,63,65,67,69,71,73,75,77,79,81,83,85,87,89,-1,91,93,-1,-1,-1,-1,-1,-1,-1,-1,-1,-1,-1,-1,-1,-1,-1,-1,-1,-1,-1,-1,-1,-1,-1,-1,-1,-1,-1,-1,-1,-1,-1,-1,-1,-1,-1,-1,-1,-1,-1,-1,-1,-1,-1,-1,-1,-1],"loss_changes":[2.3709449E11,5.588828E10,8.1160634E10,4.364378E9,1.6301743E10,4.1632694E10,0E0,8.7300915E8,5.3572813E8,2.1685059E9,1.725268E9,8.615748E9,1.0248765E10,1.8037965E8,1.2076646E8,1.1254886E8,3.168E7,3.7944307E8,5.31178E8,1.7000243E8,3.2548454E8,9.328722E8,9.3466624E8,2.3918592E8,8.1803264E9,3.901645E7,2.2052864E7,1.7299456E7,9.509888E6,1.3226496E7,1.4743552E7,2.655744E6,8.094208E6,3.3671424E7,7.267506E7,3.3329184E7,7.538163E7,1.0802048E7,1.940224E7,2.1664768E7,4.201984E7,1.4120755E8,8.158003E7,4.7878144E7,2.126848E8,5.8925056E7,0E0,2.2804767E9,4.1591726E9,0E0,0E0,0E0,0E0,0E0,0E0,0E0,0E0,0E0,0E0,0E0,0E0,0E0,0E0,0E0,0E0,0E0,0E0,0E0,0E0,0E0,0E0,0E0,0E0,0E0,0E0,0E0,0E0,0E0,0E0,0E0,0E0,0E0,0E0,0E0,0E0,0E0,0E0,0E0,0E0,0E0,0E0,0E0,0E0,0E0,0E0],"parents":[2147483647,0,0,1,1,2,2,3,3,4,4,5,5,7,7,8,8,9,9,10,10,11,11,12,12,13,13,14,14,15,15,16,16,17,17,18,18,19,19,20,20,21,21,22,22,23,23,24,24,25,25,26,26,27,27,28,28,29,29,30,30,31,31,32,32,33,33,34,34,35,35,36,36,37,37,38,38,39,39,40,40,41,41,42,42,43,43,44,44,45,45,47,47,48,48],"right_children":[2,4,6,8,10,12,-1,14,16,18,20,22,24,26,28,30,32,34,36,38,40,42,44,46,48,50,52,54,56,58,60,62,64,66,68,70,72,74,76,78,80,82,84,86,88,90,-1,92,94,-1,-1,-1,-1,-1,-1,-1,-1,-1,-1,-1,-1,-1,-1,-1,-1,-1,-1,-1,-1,-1,-1,-1,-1,-1,-1,-1,-1,-1,-1,-1,-1,-1,-1,-1,-1,-1,-1,-1,-1,-1,-1,-1,-1,-1,-1],"split_conditions":[4.8E3,1.95E3,4.2E5,1.3E3,3.025E3,9.5E3,1.4393525E4,9.6E2,1.65E3,2.435E3,3.75E3,6.725E3,1.25E4,7.5E2,1.13E3,1.46E3,1.8E3,2.185E3,2.7E3,3.35E3,4.15E3,5.75E3,7.75E3,1.1E4,4.3E1,6E2,8.9E2,1.06E3,1.22E3,1.36E3,1.56E3,1.75E3,1.9E3,2.05E3,2.315E3,2.55E3,2.84E3,3.2E3,3.6E3,3.9E3,4.5E3,5.2E3,6.3E3,7.46E3,8.5E3,1E4,5.162831E2,1.103E3,4E0,-1.0904257E2,-9.612638E1,-8.786165E1,-8.180886E1,-7.664387E1,-7.1575096E1,-6.676104E1,-6.26475E1,-5.9297066E1,-5.404735E1,-4.852586E1,-4.350199E1,-3.8193745E1,-3.3980972E1,-3.1058393E1,-2.595418E1,-2.095476E1,-1.415284E1,-6.474325E0,1.4099383E-1,6.917966E0,1.3202515E1,2.2454279E1,3.3935806E1,4.1648705E1,4.9014523E1,6.2316906E1,7.204097E1,8.126942E1,9.192515E1,1.0780282E2,1.23918396E2,1.4526837E2,1.7249591E2,2.0386856E2,2.3368584E2,2.653126E2,2.9071362E2,3.1920938E2,3.6567572E2,4.06408E2,4.522699E2,5.8623016E2,8.6997174E2,2.6164614E3,1.17361E3],"split_indices":[8,8,6,8,8,8,0,8,8,8,8,8,7,8,8,8,8,8,8,8,8,8,8,6,12,8,8,8,8,8,8,8,8,8,8,8,8,8,8,8,8,8,8,8,8,8,0,2,0,0,0,0,0,0,0,0,0,0,0,0,0,0,0,0,0,0,0,0,0,0,0,0,0,0,0,0,0,0,0,0,0,0,0,0,0,0,0,0,0,0,0,0,0,0,0],"split_type":[0,0,0,0,0,0,0,0,0,0,0,0,0,0,0,0,0,0,0,0,0,0,0,0,0,0,0,0,0,0,0,0,0,0,0,0,0,0,0,0,0,0,0,0,0,0,0,0,0,0,0,0,0,0,0,0,0,0,0,0,0,0,0,0,0,0,0,0,0,0,0,0,0,0,0,0,0,0,0,0,0,0,0,0,0,0,0,0,0,0,0,0,0,0,0],"sum_hessian":[1.87586E5,1.74876E5,1.271E4,8.0595E4,9.4281E4,1.2709E4,1E0,4.7138E4,3.3457E4,7.6906E4,1.7375E4,1.0495E4,2.214E3,1.8197E4,2.8941E4,2.2073E4,1.1384E4,4.7475E4,2.9431E4,9.485E3,7.89E3,6.124E3,4.371E3,1.455E3,7.59E2,5.541E3,1.2656E4,1.4626E4,1.4315E4,9.896E3,1.2177E4,4.217E3,7.167E3,1.4618E4,3.2857E4,1.8175E4,1.1256E4,4.291E3,5.194E3,4.442E3,3.448E3,3.922E3,2.202E3,2.18E3,2.191E3,1.156E3,2.99E2,6.54E2,1.05E2,1.773E3,3.768E3,6.797E3,5.859E3,8.749E3,5.877E3,1.0018E4,4.297E3,4.687E3,5.209E3,7.174E3,5.003E3,3.123E3,1.094E3,4.886E3,2.281E3,6.21E3,8.408E3,1.8021E4,1.4836E4,1.1808E4,6.367E3,5.36E3,5.896E3,1.645E3,2.646E3,3.734E3,1.46E3,1.53E3,2.912E3,1.482E3,1.966E3,2.198E3,1.724E3,1.432E3,7.7E2,1.469E3,7.11E2,1.26E3,9.31E2,3.14E2,8.42E2,4.4E2,2.14E2,1.1E1,9.4E1],"tree_param":{"num_deleted":"0","num_feature":"18","num_nodes":"95","size_leaf_vector":"1"}},{"base_weights":[7.2805995E-1,-2.7188498E2,4.0074785E3,-8.459577E2,2.2167955E2,3.9746294E3,1.3889752E4,-1.032128E3,-5.8745575E2,3.2836098E1,1.0942925E3,3.242545E3,7.882925E3,-1.2027755E3,-9.387226E2,-6.774048E2,-4.2296255E2,-6.3015564E1,3.1391846E2,8.3190295E2,1.4486387E3,2.4976929E3,4.240118E3,7.4856924E3,2.4734402E4,-1.3797751E3,-1.1550155E3,-1.00135913E3,-8.7345685E2,-7.511592E2,-6.1751465E2,-4.935997E2,-3.8465298E2,-1.7489075E2,1.7291813E1,2.00723E2,4.3555518E2,6.856323E2,9.499679E2,1.2534148E3,1.6492113E3,2.149925E3,2.9144067E3,3.9245425E3,4.9953955E3,6.115118E3,9.402242E3,1.0842216E4,1.7947658E4,-1.0705196E2,-9.386916E1,-8.378246E1,-7.7336464E1,-7.2024506E1,-6.7126945E1,-6.4088646E1,-5.999013E1,-5.5169746E1,-5.02329E1,-4.5119263E1,-4.0486935E1,-3.552069E1,-3.160204E1,-2.8886143E1,-2.3696545E1,-1.727889E1,-8.721853E0,-2.2896335E0,4.9251432E0,1.1047366E1,1.8038532E1,2.5644539E1,3.4903915E1,4.3823746E1,5.2439663E1,6.115883E1,7.389949E1,8.557303E1,9.64928E1,1.0942327E2,1.26397896E2,1.4261588E2,1.6883054E2,1.8968054E2,2.2249718E2,2.5887912E2,2.97297E2,3.398261E2,3.7806714E2,4.1806833E2,4.7061182E2,6.201815E2,1.1683917E3,1.8398107E3,9.8994806E2],"categories":[],"categories_nodes":[],"categories_segments":[],"categories_sizes":[],"default_left":[0,0,0,0,0,0,0,0,0,0,0,0,0,0,0,0,0,0,0,0,0,0,0,0,0,0,0,0,0,0,0,0,0,0,0,0,0,0,0,0,0,0,0,0,0,0,0,0,0,0,0,0,0,0,0,0,0,0,0,0,0,0,0,0,0,0,0,0,0,0,0,0,0,0,0,0,0,0,0,0,0,0,0,0,0,0,0,0,0,0,0,0,0,0,0],"id":4,"left_children":[1,3,5,7,9,11,-1,13,15,17,19,21,23,25,27,29,31,33,35,37,39,41,43,45,47,49,51,53,55,57,59,61,63,65,67,69,71,73,75,77,79,81,83,85,87,89,91,-1,93,-1,-1,-1,-1,-1,-1,-1,-1,-1,-1,-1,-1,-1,-1,-1,-1,-1,-1,-1,-1,-1,-1,-1,-1,-1,-1,-1,-1,-1,-1,-1,-1,-1,-1,-1,-1,-1,-1,-1,-1,-1,-1,-1,-1,-1,-1],"loss_changes":[2.0507024E11,4.9806885E10,7.559324E10,3.9102505E9,1.5575654E10,3.4191557E10,0E0,7.518495E8,5.0314854E8,2.0935643E9,1.5622922E9,7.4748396E9,1.2439642E10,1.3964083E8,1.2394906E8,9.66912E7,3.2367104E7,5.206132E8,2.7198234E8,1.6623974E8,2.7801907E8,8.299192E8,1.0064773E9,4.7862743E9,3.520306E10,1.8510848E7,2.6353664E7,1.7214464E7,9.578496E6,1.1656192E7,1.2479488E7,2.236096E6,9.943936E6,8.759008E7,8.950994E7,2.4980896E7,4.1388544E7,1.5876096E7,4.218368E7,1.235712E7,4.462387E7,8.792781E7,1.3313843E8,2.062418E8,4.597965E7,5.3374976E7,2.88512E9,0E0,9.6056525E8,0E0,0E0,0E0,0E0,0E0,0E0,0E0,0E0,0E0,0E0,0E0,0E0,0E0,0E0,0E0,0E0,0E0,0E0,0E0,0E0,0E0,0E0,0E0,0E0,0E0,0E0,0E0,0E0,0E0,0E0,0E0,0E0,0E0,0E0,0E0,0E0,0E0,0E0,0E0,0E0,0E0,0E0,0E0,0E0,0E0,0E0],"parents":[2147483647,0,0,1,1,2,2,3,3,4,4,5,5,7,7,8,8,9,9,10,10,11,11,12,12,13,13,14,14,15,15,16,16,17,17,18,18,19,19,20,20,21,21,22,22,23,23,24,24,25,25,26,26,27,27,28,28,29,29,30,30,31,31,32,32,33,33,34,34,35,35,36,36,37,37,38,38,39,39,40,40,41,41,42,42,43,43,44,44,45,45,46,46,48,48],"right_children":[2,4,6,8,10,12,-1,14,16,18,20,22,24,26,28,30,32,34,36,38,40,42,44,46,48,50,52,54,56,58,60,62,64,66,68,70,72,74,76,78,80,82,84,86,88,90,92,-1,94,-1,-1,-1,-1,-1,-1,-1,-1,-1,-1,-1,-1,-1,-1,-1,-1,-1,-1,-1,-1,-1,-1,-1,-1,-1,-1,-1,-1,-1,-1,-1,-1,-1,-1,-1,-1,-1,-1,-1,-1,-1,-1,-1,-1,-1,-1],"split_conditions":[5E3,1.98E3,4.2E5,1.3E3,3.15E3,1E4,1.3889752E4,9.4E2,1.65E3,2.53E3,3.9E3,7E3,1.2E1,7E2,1.12E3,1.46E3,1.8E3,2.265E3,2.8E3,3.5E3,4.25E3,5.75E3,8.5E3,1.2E4,1.45E2,4.7E2,8.5E2,1.05E3,1.175E3,1.36E3,1.56E3,1.75E3,1.9E3,2.13E3,2.4E3,2.65E3,2.955E3,3.3E3,3.65E3,4.15E3,4.65E3,5.5E3,6.3E3,7.75E3,9.5E3,1.1E4,1.328E3,1.0842216E4,2.52E2,-1.0705196E2,-9.386916E1,-8.378246E1,-7.7336464E1,-7.2024506E1,-6.7126945E1,-6.4088646E1,-5.999013E1,-5.5169746E1,-5.02329E1,-4.5119263E1,-4.0486935E1,-3.552069E1,-3.160204E1,-2.8886143E1,-2.3696545E1,-1.727889E1,-8.721853E0,-2.2896335E0,4.9251432E0,1.1047366E1,1.8038532E1,2.5644539E1,3.4903915E1,4.3823746E1,5.2439663E1,6.115883E1,7.389949E1,8.557303E1,9.64928E1,1.0942327E2,1.26397896E2,1.4261588E2,1.6883054E2,1.8968054E2,2.2249718E2,2.5887912E2,2.97297E2,3.398261E2,3.7806714E2,4.1806833E2,4.7061182E2,6.201815E2,1.1683917E3,1.8398107E3,9.8994806E2],"split_indices":[8,8,6,8,8,8,0,8,8,8,8,8,10,8,8,8,8,8,8,8,8,8,8,8,1,8,8,8,8,8,8,8,8,8,8,8,8,8,8,8,8,8,8,8,8,6,2,0,1,0,0,0,0,0,0,0,0,0,0,0,0,0,0,0,0,0,0,0,0,0,0,0,0,0,0,0,0,0,0,0,0,0,0,0,0,0,0,0,0,0,0,0,0,0,0],"split_type":[0,0,0,0,0,0,0,0,0,0,0,0,0,0,0,0,0,0,0,0,0,0,0,0,0,0,0,0,0,0,0,0,0,0,0,0,0,0,0,0,0,0,0,0,0,0,0,0,0,0,0,0,0,0,0,0,0,0,0,0,0,0,0,0,0,0,0,0,0,0,0,0,0,0,0,0,0,0,0,0,0,0,0,0,0,0,0,0,0,0,0,0,0,0,0],"sum_hessian":[1.87741E5,1.75782E5,1.1959E4,8.1263E4,9.4519E4,1.1958E4,1E0,4.7239E4,3.4024E4,7.7704E4,1.6815E4,1.0073E4,1.885E3,1.6706E4,3.0533E4,2.1994E4,1.203E4,5.7945E4,1.9759E4,9.663E3,7.152E3,5.769E3,4.304E3,1.843E3,4.2E1,3.544E3,1.3162E4,1.5573E4,1.496E4,9.851E3,1.2143E4,4.226E3,7.804E3,2.4213E4,3.3732E4,1.0236E4,9.523E3,4.319E3,5.344E3,3.628E3,3.524E3,3.148E3,2.621E3,3.04E3,1.264E3,1.077E3,7.66E2,1E0,4.1E1,7.22E2,2.822E3,7.164E3,5.998E3,9.424E3,6.149E3,4.189E3,1.0771E4,4.675E3,5.176E3,7.171E3,4.972E3,3.173E3,1.053E3,4.851E3,2.953E3,9.96E3,1.4253E4,1.7368E4,1.6364E4,5.841E3,4.395E3,4.544E3,4.979E3,2.234E3,2.085E3,3.11E3,2.234E3,2.917E3,7.11E2,2.281E3,1.243E3,2.208E3,9.4E2,1.483E3,1.138E3,1.794E3,1.246E3,9.48E2,3.16E2,8.81E2,1.96E2,7.15E2,5.1E1,1.1E1,3E1],"tree_param":{"num_deleted":"0","num_feature":"18","num_nodes":"95","size_leaf_vector":"1"}},{"base_weights":[1.2219737E0,-2.5312926E2,3.7317986E3,-7.86418E2,2.0580074E2,3.7001487E3,1.3403611E4,-9.6517084E2,-5.5397314E2,3.0674831E1,1.01678973E3,3.2754998E3,9.663525E3,-1.1192157E3,-8.777824E2,-6.3910034E2,-3.9783032E2,-6.075724E1,2.871381E2,7.733041E2,1.3464889E3,2.4852769E3,4.5244414E3,9.299661E3,1.0462738E4,-1.3057592E3,-1.0790396E3,-9.4822906E2,-8.315638E2,-7.148264E2,-5.8393805E2,-4.6446774E2,-3.5811575E2,-1.6559904E2,1.2306429E1,1.8244745E2,4.0558047E2,6.372007E2,8.835021E2,1.1653287E3,1.534736E3,2.1642058E3,3.1417322E3,4.0492153E3,5.52805E3,8.304098E3,1.710375E4,-9.978476E1,-8.855132E1,-7.858047E1,-7.2130554E1,-6.726556E1,-6.4257866E1,-6.08305E1,-5.639165E1,-5.2082523E1,-4.7833275E1,-4.287511E1,-3.836361E1,-3.5153454E1,-3.129223E1,-2.7423784E1,-2.2730019E1,-1.6310555E1,-8.404358E0,-2.3545594E0,4.3175845E0,1.0064468E1,1.6801311E1,2.3875307E1,3.2460896E1,4.0734287E1,4.8790478E1,5.6900394E1,6.87116E1,7.9582924E1,8.977437E1,1.0176467E2,1.17534874E2,1.3254012E2,1.688009E2,2.0731645E2,2.3313377E2,2.6749493E2,3.158445E2,3.641478E2,4.088691E2,7.517168E2,5.4231146E2,2.350063E3,1.02159076E3],"categories":[],"categories_nodes":[],"categories_segments":[],"categories_sizes":[],"default_left":[0,0,0,0,0,0,0,0,0,0,0,0,0,0,0,0,0,0,0,0,0,0,0,0,0,0,0,0,0,0,0,0,0,0,0,0,0,0,0,0,0,0,0,0,0,0,0,0,0,0,0,0,0,0,0,0,0,0,0,0,0,0,0,0,0,0,0,0,0,0,0,0,0,0,0,0,0,0,0,0,0,0,0,0,0,0,0,0,0,0,0],"id":5,"left_children":[1,3,5,7,9,11,-1,13,15,17,19,21,23,25,27,29,31,33,35,37,39,41,43,45,-1,47,49,51,53,55,57,59,61,63,65,67,69,71,73,75,77,79,81,83,85,87,89,-1,-1,-1,-1,-1,-1,-1,-1,-1,-1,-1,-1,-1,-1,-1,-1,-1,-1,-1,-1,-1,-1,-1,-1,-1,-1,-1,-1,-1,-1,-1,-1,-1,-1,-1,-1,-1,-1,-1,-1,-1,-1,-1,-1],"loss_changes":[1.7814022E11,4.3014832E10,7.049698E10,3.3771602E9,1.3416235E10,3.0310859E10,0E0,6.1761126E8,4.6949888E8,1.8217443E9,1.3456876E9,1.1029668E10,3.9102284E10,1.2321792E8,9.468928E7,9.511526E7,3.2840576E7,4.3871283E8,2.531054E8,1.442007E8,2.4119296E8,1.4378066E9,2.0446822E9,6.034694E9,0E0,1.2548608E7,2.7808768E7,3.581952E6,1.6525312E7,8.354304E6,1.3232128E7,2.836736E6,8.661632E6,7.217171E7,7.656373E7,2.409792E7,3.577011E7,1.3883904E7,3.614131E7,1.0650112E7,3.8350336E7,3.0378394E8,6.6576384E7,2.9334733E8,1.1139072E8,8.752374E8,3.1883653E9,0E0,0E0,0E0,0E0,0E0,0E0,0E0,0E0,0E0,0E0,0E0,0E0,0E0,0E0,0E0,0E0,0E0,0E0,0E0,0E0,0E0,0E0,0E0,0E0,0E0,0E0,0E0,0E0,0E0,0E0,0E0,0E0,0E0,0E0,0E0,0E0,0E0,0E0,0E0,0E0,0E0,0E0,0E0,0E0],"parents":[2147483647,0,0,1,1,2,2,3,3,4,4,5,5,7,7,8,8,9,9,10,10,11,11,12,12,13,13,14,14,15,15,16,16,17,17,18,18,19,19,20,20,21,21,22,22,23,23,25,25,26,26,27,27,28,28,29,29,30,30,31,31,32,32,33,33,34,34,35,35,36,36,37,37,38,38,39,39,40,40,41,41,42,42,43,43,44,44,45,45,46,46],"right_children":[2,4,6,8,10,12,-1,14,16,18,20,22,24,26,28,30,32,34,36,38,40,42,44,46,-1,48,50,52,54,56,58,60,62,64,66,68,70,72,74,76,78,80,82,84,86,88,90,-1,-1,-1,-1,-1,-1,-1,-1,-1,-1,-1,-1,-1,-1,-1,-1,-1,-1,-1,-1,-1,-1,-1,-1,-1,-1,-1,-1,-1,-1,-1,-1,-1,-1,-1,-1,-1,-1,-1,-1,-1,-1,-1,-1],"split_conditions":[5E3,1.98E3,4.2E5,1.26E3,3.15E3,1.2E4,1.3403611E4,9.4E2,1.62E3,2.52E3,3.9E3,7.46E3,8.4E1,6.3E2,1.1E3,1.42E3,1.8E3,2.26E3,2.8E3,3.5E3,4.25E3,6.3E3,9.5E3,4.3E1,1.0462738E4,4.7E2,8.2E2,1.02E3,1.16E3,1.35E3,1.53E3,1.7E3,1.85E3,2.125E3,2.39E3,2.65E3,2.955E3,3.3E3,3.65E3,4.15E3,4.65E3,5.5E3,7E3,8.5E3,9.9E3,3E0,5.4E1,-9.978476E1,-8.855132E1,-7.858047E1,-7.2130554E1,-6.726556E1,-6.4257866E1,-6.08305E1,-5.639165E1,-5.2082523E1,-4.7833275E1,-4.287511E1,-3.836361E1,-3.5153454E1,-3.129223E1,-2.7423784E1,-2.2730019E1,-1.6310555E1,-8.404358E0,-2.3545594E0,4.3175845E0,1.0064468E1,1.6801311E1,2.3875307E1,3.2460896E1,4.0734287E1,4.8790478E1,5.6900394E1,6.87116E1,7.9582924E1,8.977437E1,1.0176467E2,1.17534874E2,1.3254012E2,1.688009E2,2.0731645E2,2.3313377E2,2.6749493E2,3.158445E2,3.641478E2,4.088691E2,7.517168E2,5.4231146E2,2.350063E3,1.02159076E3],"split_indices":[8,8,6,8,8,8,0,8,8,8,8,8,4,8,8,8,8,8,8,8,8,8,8,12,0,8,8,8,8,8,8,8,8,8,8,8,8,8,8,8,8,8,8,8,6,3,4,0,0,0,0,0,0,0,0,0,0,0,0,0,0,0,0,0,0,0,0,0,0,0,0,0,0,0,0,0,0,0,0,0,0,0,0,0,0,0,0,0,0,0,0],"split_type":[0,0,0,0,0,0,0,0,0,0,0,0,0,0,0,0,0,0,0,0,0,0,0,0,0,0,0,0,0,0,0,0,0,0,0,0,0,0,0,0,0,0,0,0,0,0,0,0,0,0,0,0,0,0,0,0,0,0,0,0,0,0,0,0,0,0,0,0,0,0,0,0,0,0,0,0,0,0,0,0,0,0,0,0,0,0,0,0,0,0,0],"sum_hessian":[1.87736E5,1.75754E5,1.1982E4,8.1291E4,9.4463E4,1.1981E4,1E0,4.5951E4,3.534E4,7.7688E4,1.6775E4,1.1186E4,7.95E2,1.6628E4,2.9323E4,2.2869E4,1.2471E4,5.7271E4,2.0417E4,9.651E3,7.124E3,6.853E3,4.333E3,7.94E2,1E0,2.941E3,1.3687E4,1.1609E4,1.7714E4,9.633E3,1.3236E4,4.653E3,7.818E3,2.352E4,3.3751E4,1.0839E4,9.578E3,4.321E3,5.33E3,3.634E3,3.49E3,4.605E3,2.248E3,2.944E3,1.389E3,7.06E2,8.8E1,7.38E2,2.203E3,7.208E3,6.479E3,8.154E3,3.455E3,7.241E3,1.0473E4,4.986E3,4.647E3,7.361E3,5.875E3,1.462E3,3.191E3,3.889E3,3.929E3,9.481E3,1.4039E4,1.7483E4,1.6268E4,6.486E3,4.353E3,4.544E3,5.034E3,2.251E3,2.07E3,3.104E3,2.226E3,2.933E3,7.01E2,2.243E3,1.247E3,2.202E3,2.403E3,1.159E3,1.089E3,1.979E3,9.65E2,6.89E2,7E2,1.28E2,5.78E2,1E1,7.8E1],"tree_param":{"num_deleted":"0","num_feature":"18","num_nodes":"91","size_leaf_vector":"1"}},{"base_weights":[1.405307E0,-2.365069E2,3.4914663E3,-7.3538916E2,1.8823721E2,3.460892E3,1.2934484E4,-8.9764526E2,-5.197889E2,1.9890886E1,9.1876953E2,3.0477283E3,9.289855E3,-1.0311161E3,-8.102931E2,-6.1170807E2,-4.018235E2,-8.644386E1,1.9683313E2,6.966487E2,1.2528387E3,2.310722E3,4.2103975E3,3.9929688E4,8.566233E3,-1.1548427E3,-9.769039E2,-8.571819E2,-7.5773175E2,-6.645451E2,-5.593585E2,-4.688627E2,-3.4531686E2,-1.9696356E2,-3.81942E1,1.19925575E2,3.5191824E2,5.7152313E2,8.2201917E2,1.1174495E3,1.4705851E3,1.8980458E3,2.7543647E3,3.7640747E3,5.147984E3,2.5309516E4,1.0096542E4,6.6910703E3,1.1418392E4,-8.907718E1,-7.782544E1,-7.0601616E1,-6.580954E1,-6.1628513E1,-5.7570686E1,-5.38497E1,-5.0797897E1,-4.8433334E1,-4.447839E1,-4.1547195E1,-3.844934E1,-3.448399E1,-3.0769949E1,-2.5874285E1,-2.156864E1,-1.7036627E1,-1.1379641E1,-5.1583056E0,3.2186687E-1,6.3711967E0,1.28255625E1,1.997231E1,2.8180792E1,3.658317E1,4.53183E1,5.289419E1,6.3928303E1,7.398412E1,8.632145E1,9.759527E1,1.0927676E2,1.23357376E2,1.4828128E2,1.7627501E2,2.1315541E2,2.4894911E2,2.9379755E2,3.3882245E2,3.8153223E2,1.8938333E2,2.2439543E3,4.4758807E2,5.127785E2,1.8121007E3,7.1057074E2],"categories":[],"categories_nodes":[],"categories_segments":[],"categories_sizes":[],"default_left":[0,0,0,0,0,0,0,0,0,0,0,0,0,0,0,0,0,0,0,0,0,0,0,0,0,0,0,0,0,0,0,0,0,0,0,0,0,0,0,0,0,0,0,0,0,0,0,0,0,0,0,0,0,0,0,0,0,0,0,0,0,0,0,0,0,0,0,0,0,0,0,0,0,0,0,0,0,0,0,0,0,0,0,0,0,0,0,0,0,0,0,0,0,0,0],"id":6,"left_children":[1,3,5,7,9,11,-1,13,15,17,19,21,23,25,27,29,31,33,35,37,39,41,43,45,47,49,51,53,55,57,59,61,63,65,67,69,71,73,75,77,79,81,83,85,87,89,-1,91,93,-1,-1,-1,-1,-1,-1,-1,-1,-1,-1,-1,-1,-1,-1,-1,-1,-1,-1,-1,-1,-1,-1,-1,-1,-1,-1,-1,-1,-1,-1,-1,-1,-1,-1,-1,-1,-1,-1,-1,-1,-1,-1,-1,-1,-1,-1],"loss_changes":[1.5579197E11,3.7220532E10,6.5728856E10,2.8253102E9,1.1668186E10,2.880648E10,0E0,5.3651456E8,3.758971E8,1.4508314E9,1.3176525E9,9.572065E9,1.7217892E10,1.211351E8,6.801818E7,5.355059E7,5.739904E7,2.568342E8,3.4519104E8,1.6698931E8,2.0752077E8,1.2481454E9,1.7955062E9,2.3799106E10,4.0685036E9,2.6694656E7,1.3828096E7,1.1152384E7,4.306944E6,7.291648E6,3.05024E6,4.619648E6,7.346368E6,2.3330048E7,5.0929224E7,3.539203E7,3.2260992E7,1.9500928E7,3.1595776E7,2.9369856E7,1.6603648E7,1.0244813E8,2.1867725E8,2.4962662E8,1.035264E8,2.5059226E9,0E0,4.169523E7,5.348471E9,0E0,0E0,0E0,0E0,0E0,0E0,0E0,0E0,0E0,0E0,0E0,0E0,0E0,0E0,0E0,0E0,0E0,0E0,0E0,0E0,0E0,0E0,0E0,0E0,0E0,0E0,0E0,0E0,0E0,0E0,0E0,0E0,0E0,0E0,0E0,0E0,0E0,0E0,0E0,0E0,0E0,0E0,0E0,0E0,0E0,0E0],"parents":[2147483647,0,0,1,1,2,2,3,3,4,4,5,5,7,7,8,8,9,9,10,10,11,11,12,12,13,13,14,14,15,15,16,16,17,17,18,18,19,19,20,20,21,21,22,22,23,23,24,24,25,25,26,26,27,27,28,28,29,29,30,30,31,31,32,32,33,33,34,34,35,35,36,36,37,37,38,38,39,39,40,40,41,41,42,42,43,43,44,44,45,45,47,47,48,48],"right_children":[2,4,6,8,10,12,-1,14,16,18,20,22,24,26,28,30,32,34,36,38,40,42,44,46,48,50,52,54,56,58,60,62,64,66,68,70,72,74,76,78,80,82,84,86,88,90,-1,92,94,-1,-1,-1,-1,-1,-1,-1,-1,-1,-1,-1,-1,-1,-1,-1,-1,-1,-1,-1,-1,-1,-1,-1,-1,-1,-1,-1,-1,-1,-1,-1,-1,-1,-1,-1,-1,-1,-1,-1,-1,-1,-1,-1,-1,-1,-1],"split_conditions":[5E3,1.95E3,4.2E5,1.26E3,3.1E3,1.2E4,1.2934484E4,9.6E2,1.6E3,2.45E3,3.9E3,7.46E3,4E0,7.5E2,1.13E3,1.42E3,1.75E3,2.185E3,2.75E3,3.5E3,4.5E3,6E3,9.5E3,1.9462858E3,1.103E3,5.46E2,8.9E2,1.06E3,1.205E3,1.35E3,1.494E3,1.65E3,1.85E3,2.05E3,2.32E3,2.591E3,2.9E3,3.3E3,3.65E3,4.15E3,4.65E3,5.5E3,6.725E3,8.5E3,9.9E3,1.99E2,1.0096542E4,3.1E1,9.7E1,-8.907718E1,-7.782544E1,-7.0601616E1,-6.580954E1,-6.1628513E1,-5.7570686E1,-5.38497E1,-5.0797897E1,-4.8433334E1,-4.447839E1,-4.1547195E1,-3.844934E1,-3.448399E1,-3.0769949E1,-2.5874285E1,-2.156864E1,-1.7036627E1,-1.1379641E1,-5.1583056E0,3.2186687E-1,6.3711967E0,1.28255625E1,1.997231E1,2.8180792E1,3.658317E1,4.53183E1,5.289419E1,6.3928303E1,7.398412E1,8.632145E1,9.759527E1,1.0927676E2,1.23357376E2,1.4828128E2,1.7627501E2,2.1315541E2,2.4894911E2,2.9379755E2,3.3882245E2,3.8153223E2,1.8938333E2,2.2439543E3,4.4758807E2,5.127785E2,1.8121007E3,7.1057074E2],"split_indices":[8,8,6,8,8,8,0,8,8,8,8,8,0,8,8,8,8,8,8,8,8,8,8,16,2,8,8,8,8,8,8,8,8,8,8,8,8,8,8,8,8,8,8,8,6,1,0,12,1,0,0,0,0,0,0,0,0,0,0,0,0,0,0,0,0,0,0,0,0,0,0,0,0,0,0,0,0,0,0,0,0,0,0,0,0,0,0,0,0,0,0,0,0,0,0],"split_type":[0,0,0,0,0,0,0,0,0,0,0,0,0,0,0,0,0,0,0,0,0,0,0,0,0,0,0,0,0,0,0,0,0,0,0,0,0,0,0,0,0,0,0,0,0,0,0,0,0,0,0,0,0,0,0,0,0,0,0,0,0,0,0,0,0,0,0,0,0,0,0,0,0,0,0,0,0,0,0,0,0,0,0,0,0,0,0,0,0,0,0,0,0,0,0],"sum_hessian":[1.87625E5,1.75652E5,1.1973E4,8.0776E4,9.4876E4,1.1972E4,1E0,4.6088E4,3.4688E4,7.7108E4,1.7768E4,1.1181E4,7.91E2,1.8227E4,2.7861E4,1.9494E4,1.5194E4,4.8164E4,2.8944E4,1.0674E4,7.094E3,6.845E3,4.336E3,1.7E1,7.74E2,5.547E3,1.268E4,1.4717E4,1.3144E4,9.696E3,9.798E3,6.946E3,8.248E3,1.4636E4,3.3528E4,1.935E4,9.594E3,5.345E3,5.329E3,4.378E3,2.716E3,3.549E3,3.296E3,2.941E3,1.395E3,1.6E1,1E0,4.69E2,3.05E2,1.478E3,4.069E3,6.796E3,5.884E3,8.806E3,5.911E3,9.645E3,3.499E3,4.989E3,4.707E3,2.219E3,7.579E3,3.826E3,3.12E3,4.982E3,3.266E3,6.227E3,8.409E3,1.8326E4,1.5202E4,1.3285E4,6.065E3,4.148E3,5.446E3,3.255E3,2.09E3,3.09E3,2.239E3,2.881E3,1.497E3,1.482E3,1.234E3,2.201E3,1.348E3,1.824E3,1.472E3,1.994E3,9.47E2,7E2,6.95E2,4E0,1.2E1,3.27E2,1.42E2,2.3E1,2.82E2],"tree_param":{"num_deleted":"0","num_feature":"18","num_nodes":"95","size_leaf_vector":"1"}},{"base_weights":[3.452728E-2,-2.2048816E2,3.1044258E3,-6.672172E2,1.6469655E2,2.7018333E3,8.0890728E3,-7.895014E2,-4.0639188E2,2.1599737E1,8.6146594E2,2.04429E3,3.780073E3,7.797815E3,9.743163E3,-9.134176E2,-7.076348E2,-4.8236108E2,-2.5761945E2,-5.5769966E1,2.1805414E2,6.637275E2,1.2205323E3,1.6496256E3,2.4449429E3,3.3333376E3,4.551374E3,6.1238228E3,1.1036017E4,-1.007882E3,-8.5135815E2,-7.3453455E2,-6.0808527E2,-5.3793695E2,-4.1754355E2,-2.648951E2,1.3332765E3,-3.5676755E2,-2.654472E1,1.7835146E2,4.7685312E2,5.575147E2,8.488664E2,1.0843871E3,1.4450726E3,9.8226624E2,1.7996348E3,1.8259177E3,2.5943438E3,3.0781072E3,3.6163286E3,4.340139E3,3.4342764E2,3.85514E2,6.5463716E3,3.442924E2,1.2426709E4,-7.873158E1,-6.887886E1,-6.2357414E1,-5.7636093E1,-5.9888626E1,-4.9377007E1,-4.9033108E1,-3.876945E1,-4.1347878E1,-3.6096634E1,-3.1345839E1,-2.5041933E1,-2.1403118E1,-1.4752751E1,8.1783676E1,2.084649E2,-3.1766739E1,-1.9462193E1,-5.5232906E0,3.6226697E0,2.691241E0,1.9479744E1,2.1933426E1,3.9486904E1,3.1618898E1,4.3106216E1,5.1355293E1,6.25045E1,6.782799E1,8.1571434E1,9.64409E1,1.0806782E2,4.7900726E1,8.7675224E1,1.195054E2,1.4500252E2,9.4224266E1,1.7099126E2,1.7371225E2,2.4166782E2,2.0623813E2,2.21757E2,2.4856181E2,2.8552878E2,2.977718E2,3.3050912E2,4.4912143E2,1.01444E3,7.6852234E2,1.5552843E3],"categories":[],"categories_nodes":[],"categories_segments":[],"categories_sizes":[],"default_left":[0,0,0,0,0,0,0,0,0,0,0,0,0,0,0,0,0,0,0,0,0,0,0,0,0,0,0,0,0,0,0,0,0,0,0,0,0,0,0,0,0,0,0,0,0,0,0,0,0,0,0,0,0,0,0,0,0,0,0,0,0,0,0,0,0,0,0,0,0,0,0,0,0,0,0,0,0,0,0,0,0,0,0,0,0,0,0,0,0,0,0,0,0,0,0,0,0,0,0,0,0,0,0,0,0,0,0],"id":7,"left_children":[1,3,5,7,9,11,13,15,17,19,21,23,25,27,-1,29,31,33,35,37,39,41,43,45,47,49,51,53,55,57,59,61,63,65,67,69,71,73,75,77,79,81,83,85,87,89,91,93,95,97,99,101,-1,-1,103,-1,105,-1,-1,-1,-1,-1,-1,-1,-1,-1,-1,-1,-1,-1,-1,-1,-1,-1,-1,-1,-1,-1,-1,-1,-1,-1,-1,-1,-1,-1,-1,-1,-1,-1,-1,-1,-1,-1,-1,-1,-1,-1,-1,-1,-1,-1,-1,-1,-1,-1,-1],"loss_changes":[1.2838298E11,3.0129265E10,2.4938504E10,2.585424E9,9.37479E9,8.152736E9,3.438717E10,5.5926784E8,2.9236326E8,1.1856736E9,1.1366287E9,1.126867E9,1.4867948E9,4.962849E9,0E0,1.2784435E8,8.856576E7,6.148275E7,1.0163277E8,4.923083E8,2.2638662E8,2.0271616E8,1.7231616E8,3.5922944E8,3.2329728E8,1.8850611E8,9.82999E7,1.2388966E8,2.6187858E9,2.3186432E7,1.3906944E7,9.168998E7,3.507328E7,1.0524928E7,1.4154624E7,1.9208E7,7.372184E6,3.771872E7,2.0914074E8,2.6717651E8,4.163763E7,4.023859E7,1.8456064E7,3.1978496E7,1.2132352E7,5.260992E7,7.039386E7,2.018281E8,2.6761626E8,7.962624E6,2.5028608E7,1.3109248E7,0E0,0E0,2.7884237E8,0E0,3.385254E9,0E0,0E0,0E0,0E0,0E0,0E0,0E0,0E0,0E0,0E0,0E0,0E0,0E0,0E0,0E0,0E0,0E0,0E0,0E0,0E0,0E0,0E0,0E0,0E0,0E0,0E0,0E0,0E0,0E0,0E0,0E0,0E0,0E0,0E0,0E0,0E0,0E0,0E0,0E0,0E0,0E0,0E0,0E0,0E0,0E0,0E0,0E0,0E0,0E0,0E0],"parents":[2147483647,0,0,1,1,2,2,3,3,4,4,5,5,6,6,7,7,8,8,9,9,10,10,11,11,12,12,13,13,15,15,16,16,17,17,18,18,19,19,20,20,21,21,22,22,23,23,24,24,25,25,26,26,27,27,28,28,29,29,30,30,31,31,32,32,33,33,34,34,35,35,36,36,37,37,38,38,39,39,40,40,41,41,42,42,43,43,44,44,45,45,46,46,47,47,48,48,49,49,50,50,51,51,54,54,56,56],"right_children":[2,4,6,8,10,12,14,16,18,20,22,24,26,28,-1,30,32,34,36,38,40,42,44,46,48,50,52,54,56,58,60,62,64,66,68,70,72,74,76,78,80,82,84,86,88,90,92,94,96,98,100,102,-1,-1,104,-1,106,-1,-1,-1,-1,-1,-1,-1,-1,-1,-1,-1,-1,-1,-1,-1,-1,-1,-1,-1,-1,-1,-1,-1,-1,-1,-1,-1,-1,-1,-1,-1,-1,-1,-1,-1,-1,-1,-1,-1,-1,-1,-1,-1,-1,-1,-1,-1,-1,-1,-1],"split_conditions":[5.2E3,2.125E3,1.1E4,1.3E3,3E3,7E3,8.4E1,1.12E3,1.7E3,2.73E3,4.1E3,6.1E3,9.5E3,1.058E3,9.743163E3,7.6E2,1.58E3,1.63E3,2.9E3,1.7E3,3.8E3,3.5E3,4.4E3,4E3,3.33E3,7.75E3,9.9E3,1.25E4,1.25E4,6.7E2,8.75E2,8.5E2,7.5E2,1.4E3,1.85E3,1.88E3,4.7E3,9.6E2,2.3E3,2.4E3,1.23E3,3.4E3,3.76E3,4E3,4.7E3,2.46E3,5.5E3,9E3,9.5E3,7.6E3,8.8E3,1.12E4,3.4342764E2,3.85514E2,1E1,3.442924E2,1.7E1,-7.873158E1,-6.887886E1,-6.2357414E1,-5.7636093E1,-5.9888626E1,-4.9377007E1,-4.9033108E1,-3.876945E1,-4.1347878E1,-3.6096634E1,-3.1345839E1,-2.5041933E1,-2.1403118E1,-1.4752751E1,8.1783676E1,2.084649E2,-3.1766739E1,-1.9462193E1,-5.5232906E0,3.6226697E0,2.691241E0,1.9479744E1,2.1933426E1,3.9486904E1,3.1618898E1,4.3106216E1,5.1355293E1,6.25045E1,6.782799E1,8.1571434E1,9.64409E1,1.0806782E2,4.7900726E1,8.7675224E1,1.195054E2,1.4500252E2,9.4224266E1,1.7099126E2,1.7371225E2,2.4166782E2,2.0623813E2,2.21757E2,2.4856181E2,2.8552878E2,2.977718E2,3.3050912E2,4.4912143E2,1.01444E3,7.6852234E2,1.5552843E3],"split_indices":[7,7,6,6,6,6,4,7,6,7,7,7,7,2,0,6,7,7,6,6,7,6,6,6,6,6,6,7,7,7,6,6,6,6,7,6,6,6,6,6,6,7,7,6,6,6,6,7,7,7,6,7,0,0,10,0,0,0,0,0,0,0,0,0,0,0,0,0,0,0,0,0,0,0,0,0,0,0,0,0,0,0,0,0,0,0,0,0,0,0,0,0,0,0,0,0,0,0,0,0,0,0,0,0,0,0,0],"split_type":[0,0,0,0,0,0,0,0,0,0,0,0,0,0,0,0,0,0,0,0,0,0,0,0,0,0,0,0,0,0,0,0,0,0,0,0,0,0,0,0,0,0,0,0,0,0,0,0,0,0,0,0,0,0,0,0,0,0,0,0,0,0,0,0,0,0,0,0,0,0,0,0,0,0,0,0,0,0,0,0,0,0,0,0,0,0,0,0,0,0,0,0,0,0,0,0,0,0,0,0,0,0,0,0,0,0,0],"sum_hessian":[1.87531E5,1.75094E5,1.2437E4,8.107E4,9.4024E4,1.1509E4,9.28E2,5.5192E4,2.5878E4,7.8005E4,1.6019E4,7.151E3,4.358E3,9.27E2,1E0,2.1953E4,3.3239E4,1.7129E4,8.749E3,5.5965E4,2.204E4,1.0332E4,5.687E3,3.605E3,3.546E3,2.763E3,1.595E3,6.13E2,3.14E2,8.698E3,1.3255E4,2.6163E4,7.076E3,9.218E3,7.911E3,8.71E3,3.9E1,4.952E3,5.1013E4,1.911E4,2.93E3,6.568E3,3.764E3,3.544E3,2.143E3,6.63E2,2.942E3,6.92E2,2.854E3,1.459E3,1.304E3,1.008E3,5.87E2,2.55E2,3.58E2,5.9E1,2.55E2,1.469E3,7.229E3,5.487E3,7.768E3,5.073E3,2.109E4,2.613E3,4.463E3,2.729E3,6.489E3,5.249E3,2.662E3,4.961E3,3.749E3,3.7E1,2E0,2.216E3,2.736E3,3.057E4,2.0443E4,7.963E3,1.1147E4,1.021E3,1.909E3,2.336E3,4.232E3,1.046E3,2.718E3,1.466E3,2.078E3,1.283E3,8.6E2,3.17E2,3.46E2,2.201E3,7.41E2,3.91E2,3.01E2,2.526E3,3.28E2,6.05E2,8.54E2,1.15E3,1.54E2,8.32E2,1.76E2,3.54E2,4E0,2.24E2,3.1E1],"tree_param":{"num_deleted":"0","num_feature":"18","num_nodes":"107","size_leaf_vector":"1"}},{"base_weights":[4.185794E-1,-2.104802E2,2.9022942E3,-6.3657166E2,1.5316745E2,2.875265E3,1.2140768E4,-7.8362384E2,-4.5640298E2,1.5732943E1,7.644189E2,2.3123025E3,5.558878E3,-9.0574457E2,-7.137838E2,-5.3735077E2,-3.5047824E2,-7.7553055E1,1.6631015E2,5.642312E2,1.00444055E3,1.7672158E3,3.0535273E3,4.4750747E3,7.4806104E3,-1.0570536E3,-8.722527E2,-7.6553204E2,-6.746252E2,-5.793758E2,-4.868749E2,-4.0788855E2,-2.988166E2,-1.536166E2,-2.3798891E1,1.0172222E2,3.009511E2,4.617848E2,6.49968E2,9.01567E2,1.1979677E3,1.5583563E3,2.129799E3,2.773113E3,3.447915E3,4.363001E3,3.55783E2,6.4803867E3,1.4436923E4,-8.123709E1,-7.158847E1,-6.5385994E1,-5.9383873E1,-5.5653095E1,-5.2775887E1,-4.910267E1,-4.5708946E1,-4.223431E1,-3.865579E1,-3.6014492E1,-3.345598E1,-2.9936022E1,-2.663026E1,-2.2439287E1,-1.8629261E1,-1.45888405E1,-8.56642E0,-3.3457217E0,4.3240437E-1,5.3459496E0,1.0690669E1,1.7192553E1,2.4403324E1,2.9399883E1,3.40546E1,4.3642395E1,5.0126656E1,5.7990173E1,6.6489655E1,7.707901E1,8.648572E1,1.0048351E2,1.2032268E2,1.416697E2,1.6305984E2,1.8505362E2,2.058628E2,2.2722978E2,2.5429507E2,2.8144287E2,3.139905E2,5.9576697E2,4.2267975E2,1.3656656E3,4.5269846E2],"categories":[],"categories_nodes":[],"categories_segments":[],"categories_sizes":[],"default_left":[0,0,0,0,0,0,0,0,0,0,0,0,0,0,0,0,0,0,0,0,0,0,0,0,0,0,0,0,0,0,0,0,0,0,0,0,0,0,0,0,0,0,0,0,0,0,0,0,0,0,0,0,0,0,0,0,0,0,0,0,0,0,0,0,0,0,0,0,0,0,0,0,0,0,0,0,0,0,0,0,0,0,0,0,0,0,0,0,0,0,0,0,0,0,0],"id":8,"left_children":[1,3,5,7,9,11,-1,13,15,17,19,21,23,25,27,29,31,33,35,37,39,41,43,45,47,49,51,53,55,57,59,61,63,65,67,69,71,73,75,77,79,81,83,85,87,89,-1,91,93,-1,-1,-1,-1,-1,-1,-1,-1,-1,-1,-1,-1,-1,-1,-1,-1,-1,-1,-1,-1,-1,-1,-1,-1,-1,-1,-1,-1,-1,-1,-1,-1,-1,-1,-1,-1,-1,-1,-1,-1,-1,-1,-1,-1,-1,-1],"loss_changes":[1.1496152E11,2.7134136E10,5.816677E10,2.1360271E9,7.9372257E9,1.9213238E10,0E0,3.7801165E8,3.1054694E8,1.0835788E9,8.328018E8,4.2454262E9,4.5611377E9,8.091443E7,5.672653E7,4.328909E7,4.6445824E7,1.9475078E8,2.5658502E8,8.278221E7,1.5592038E8,4.559749E8,4.8334848E8,7.403315E7,5.4309847E9,9.202432E6,1.8765824E7,3.559936E6,8.887808E6,6.95808E6,2.057728E6,3.872384E6,5.790848E6,3.3735616E7,2.0077088E7,2.5775312E7,2.51504E7,4.24896E6,8.574976E6,1.7410304E7,8.579328E6,7.352013E7,4.2110976E7,4.892877E7,5.714125E7,3.232768E7,0E0,5.734236E8,3.8761533E9,0E0,0E0,0E0,0E0,0E0,0E0,0E0,0E0,0E0,0E0,0E0,0E0,0E0,0E0,0E0,0E0,0E0,0E0,0E0,0E0,0E0,0E0,0E0,0E0,0E0,0E0,0E0,0E0,0E0,0E0,0E0,0E0,0E0,0E0,0E0,0E0,0E0,0E0,0E0,0E0,0E0,0E0,0E0,0E0,0E0,0E0],"parents":[2147483647,0,0,1,1,2,2,3,3,4,4,5,5,7,7,8,8,9,9,10,10,11,11,12,12,13,13,14,14,15,15,16,16,17,17,18,18,19,19,20,20,21,21,22,22,23,23,24,24,25,25,26,26,27,27,28,28,29,29,30,30,31,31,32,32,33,33,34,34,35,35,36,36,37,37,38,38,39,39,40,40,41,41,42,42,43,43,44,44,45,45,47,47,48,48],"right_children":[2,4,6,8,10,12,-1,14,16,18,20,22,24,26,28,30,32,34,36,38,40,42,44,46,48,50,52,54,56,58,60,62,64,66,68,70,72,74,76,78,80,82,84,86,88,90,-1,92,94,-1,-1,-1,-1,-1,-1,-1,-1,-1,-1,-1,-1,-1,-1,-1,-1,-1,-1,-1,-1,-1,-1,-1,-1,-1,-1,-1,-1,-1,-1,-1,-1,-1,-1,-1,-1,-1,-1,-1,-1,-1,-1,-1,-1,-1,-1],"split_conditions":[4.8E3,1.95E3,4.2E5,1.25E3,3.025E3,9.5E3,1.2140768E4,9.05E2,1.58E3,2.435E3,3.75E3,6.725E3,1.2E4,6.3E2,1.1E3,1.42E3,1.75E3,2.215E3,2.73E3,3.35E3,4.25E3,5.75E3,8E3,1.1E4,4.3E1,4.7E2,7.95E2,1E3,1.16E3,1.32E3,1.494E3,1.65E3,1.85E3,2.08E3,2.335E3,2.57E3,2.9E3,3.2E3,3.6E3,4E3,4.5E3,5.2E3,6.3E3,7.46E3,8.5E3,1E4,3.55783E2,3E0,1E0,-8.123709E1,-7.158847E1,-6.5385994E1,-5.9383873E1,-5.5653095E1,-5.2775887E1,-4.910267E1,-4.5708946E1,-4.223431E1,-3.865579E1,-3.6014492E1,-3.345598E1,-2.9936022E1,-2.663026E1,-2.2439287E1,-1.8629261E1,-1.45888405E1,-8.56642E0,-3.3457217E0,4.3240437E-1,5.3459496E0,1.0690669E1,1.7192553E1,2.4403324E1,2.9399883E1,3.40546E1,4.3642395E1,5.0126656E1,5.7990173E1,6.6489655E1,7.707901E1,8.648572E1,1.0048351E2,1.2032268E2,1.416697E2,1.6305984E2,1.8505362E2,2.058628E2,2.2722978E2,2.5429507E2,2.8144287E2,3.139905E2,5.9576697E2,4.2267975E2,1.3656656E3,4.5269846E2],"split_indices":[8,8,6,8,8,8,0,8,8,8,8,8,8,8,8,8,8,8,8,8,8,8,8,6,12,8,8,8,8,8,8,8,8,8,8,8,8,8,8,8,8,8,8,8,8,8,0,3,3,0,0,0,0,0,0,0,0,0,0,0,0,0,0,0,0,0,0,0,0,0,0,0,0,0,0,0,0,0,0,0,0,0,0,0,0,0,0,0,0,0,0,0,0,0,0],"split_type":[0,0,0,0,0,0,0,0,0,0,0,0,0,0,0,0,0,0,0,0,0,0,0,0,0,0,0,0,0,0,0,0,0,0,0,0,0,0,0,0,0,0,0,0,0,0,0,0,0,0,0,0,0,0,0,0,0,0,0,0,0,0,0,0,0,0,0,0,0,0,0,0,0,0,0,0,0,0,0,0,0,0,0,0,0,0,0,0,0,0,0,0,0,0,0],"sum_hessian":[1.87843E5,1.75117E5,1.2726E4,8.0635E4,9.4482E4,1.2725E4,1E0,4.4396E4,3.6239E4,7.7139E4,1.7343E4,1.052E4,2.205E3,1.6148E4,2.8248E4,2.0539E4,1.57E4,4.7631E4,2.9508E4,9.458E3,7.885E3,6.064E3,4.456E3,1.412E3,7.93E2,2.921E3,1.3227E4,1.216E4,1.6088E4,1.1202E4,9.337E3,7.433E3,8.267E3,1.9722E4,2.7909E4,1.9943E4,9.565E3,4.312E3,5.146E3,5.152E3,2.733E3,3.851E3,2.213E3,2.609E3,1.847E3,1.199E3,2.13E2,6.95E2,9.8E1,7.2E2,2.201E3,3.678E3,9.549E3,3.41E3,8.75E3,7.167E3,8.921E3,5.938E3,5.264E3,2.268E3,7.069E3,4.313E3,3.12E3,4.959E3,3.308E3,7.159E3,1.2563E4,1.55E4,1.2409E4,1.3323E4,6.62E3,4.429E3,5.136E3,1.609E3,2.703E3,3.681E3,1.465E3,2.056E3,3.096E3,7.72E2,1.961E3,2.187E3,1.664E3,1.453E3,7.6E2,1.482E3,1.127E3,8.92E2,9.55E2,3.25E2,8.74E2,1.21E2,5.74E2,5.9E1,3.9E1],"tree_param":{"num_deleted":"0","num_feature":"18","num_nodes":"95","size_leaf_vector":"1"}},{"base_weights":[2.1818573E0,-1.8940779E2,2.8178982E3,-5.8967236E2,1.5520895E2,2.7901687E3,1.171584E4,-7.286959E2,-4.2138126E2,1.8381834E1,7.4151917E2,2.4565847E3,7.389271E3,-8.6727966E2,-6.7551715E2,-4.977354E2,-3.196377E2,-5.9909626E1,1.7694781E2,5.621218E2,1.0086768E3,1.9371317E3,3.5387336E3,7.0676396E3,9.354354E3,-9.8392676E2,-8.3105005E2,-7.255718E2,-6.2895056E2,-5.3919666E2,-4.5048297E2,-3.7702585E2,-2.739753E2,-1.4015521E2,-1.2385352E1,1.1580185E2,2.964174E2,4.6036697E2,6.633734E2,8.72618E2,1.1498562E3,1.6180887E3,2.4348093E3,3.144522E3,4.155536E3,6.045307E3,1.3366731E4,-7.554242E1,-6.6604645E1,-6.078396E1,-5.6512257E1,-5.279758E1,-4.93459E1,-4.5759506E1,-4.2511593E1,-3.9307236E1,-3.596273E1,-3.218188E1,-2.965933E1,-2.741466E1,-2.409616E1,-2.0524454E1,-1.6418226E1,-1.2469432E1,-7.207505E0,-2.6251972E0,1.8752899E0,6.3410444E0,1.2264988E1,1.7959858E1,2.3918575E1,2.9502443E1,3.6505856E1,4.281779E1,5.145785E1,5.9594448E1,6.728907E1,7.628629E1,8.7832634E1,9.909405E1,1.26014175E2,1.5528514E2,1.8020998E2,2.0789282E2,2.3619556E2,2.775855E2,3.1266467E2,4.692965E2,3.51964E2,1.8978556E3,8.012305E2],"categories":[],"categories_nodes":[],"categories_segments":[],"categories_sizes":[],"default_left":[0,0,0,0,0,0,0,0,0,0,0,0,0,0,0,0,0,0,0,0,0,0,0,0,0,0,0,0,0,0,0,0,0,0,0,0,0,0,0,0,0,0,0,0,0,0,0,0,0,0,0,0,0,0,0,0,0,0,0,0,0,0,0,0,0,0,0,0,0,0,0,0,0,0,0,0,0,0,0,0,0,0,0,0,0,0,0,0,0,0,0],"id":9,"left_children":[1,3,5,7,9,11,-1,13,15,17,19,21,23,25,27,29,31,33,35,37,39,41,43,45,-1,47,49,51,53,55,57,59,61,63,65,67,69,71,73,75,77,79,81,83,85,87,89,-1,-1,-1,-1,-1,-1,-1,-1,-1,-1,-1,-1,-1,-1,-1,-1,-1,-1,-1,-1,-1,-1,-1,-1,-1,-1,-1,-1,-1,-1,-1,-1,-1,-1,-1,-1,-1,-1,-1,-1,-1,-1,-1,-1],"loss_changes":[1.0136708E11,2.4267913E10,5.4155485E10,1.9040461E9,7.5842017E9,1.8346066E10,0E0,3.278971E8,2.85909E8,9.515963E8,8.567583E8,6.2675845E9,3.1904256E10,5.1403776E7,7.463526E7,4.096768E7,4.127411E7,1.956976E8,1.8505446E8,1.0997606E8,1.3701069E8,1.1939021E9,8.668938E8,5.1225313E9,0E0,8.00256E6,7.64928E6,8.651264E6,8.548864E6,6.075904E6,2.244096E6,3.216768E6,6.601728E6,2.6941888E7,3.1714736E7,2.5093936E7,1.5386816E7,1.2487552E7,1.9437568E7,6.088448E6,2.0825088E7,1.6705638E8,8.328806E7,7.870669E7,6.552576E7,4.3348582E8,2.6463928E9,0E0,0E0,0E0,0E0,0E0,0E0,0E0,0E0,0E0,0E0,0E0,0E0,0E0,0E0,0E0,0E0,0E0,0E0,0E0,0E0,0E0,0E0,0E0,0E0,0E0,0E0,0E0,0E0,0E0,0E0,0E0,0E0,0E0,0E0,0E0,0E0,0E0,0E0,0E0,0E0,0E0,0E0,0E0,0E0],"parents":[2147483647,0,0,1,1,2,2,3,3,4,4,5,5,7,7,8,8,9,9,10,10,11,11,12,12,13,13,14,14,15,15,16,16,17,17,18,18,19,19,20,20,21,21,22,22,23,23,25,25,26,26,27,27,28,28,29,29,30,30,31,31,32,32,33,33,34,34,35,35,36,36,37,37,38,38,39,39,40,40,41,41,42,42,43,43,44,44,45,45,46,46],"right_children":[2,4,6,8,10,12,-1,14,16,18,20,22,24,26,28,30,32,34,36,38,40,42,44,46,-1,48,50,52,54,56,58,60,62,64,66,68,70,72,74,76,78,80,82,84,86,88,90,-1,-1,-1,-1,-1,-1,-1,-1,-1,-1,-1,-1,-1,-1,-1,-1,-1,-1,-1,-1,-1,-1,-1,-1,-1,-1,-1,-1,-1,-1,-1,-1,-1,-1,-1,-1,-1,-1,-1,-1,-1,-1,-1,-1],"split_conditions":[5E3,1.98E3,4.2E5,1.25E3,3.1E3,1.2E4,1.171584E4,8.9E2,1.6E3,2.49E3,3.9E3,7.75E3,8.4E1,6.3E2,1.08E3,1.42E3,1.75E3,2.215E3,2.8E3,3.5E3,4.25E3,6.3E3,9.5E3,4.3E1,9.354354E3,4.7E2,7.95E2,9.8E2,1.16E3,1.32E3,1.53E3,1.7E3,1.9E3,2.125E3,2.365E3,2.62E3,2.955E3,3.3E3,3.65E3,4.15E3,4.65E3,5.5E3,7E3,8.5E3,1.12E4,2E1,4E0,-7.554242E1,-6.6604645E1,-6.078396E1,-5.6512257E1,-5.279758E1,-4.93459E1,-4.5759506E1,-4.2511593E1,-3.9307236E1,-3.596273E1,-3.218188E1,-2.965933E1,-2.741466E1,-2.409616E1,-2.0524454E1,-1.6418226E1,-1.2469432E1,-7.207505E0,-2.6251972E0,1.8752899E0,6.3410444E0,1.2264988E1,1.7959858E1,2.3918575E1,2.9502443E1,3.6505856E1,4.281779E1,5.145785E1,5.9594448E1,6.728907E1,7.628629E1,8.7832634E1,9.909405E1,1.26014175E2,1.5528514E2,1.8020998E2,2.0789282E2,2.3619556E2,2.775855E2,3.1266467E2,4.692965E2,3.51964E2,1.8978556E3,8.012305E2],"split_indices":[8,8,6,8,8,8,0,8,8,8,8,8,4,8,8,8,8,8,8,8,8,8,8,12,0,8,8,8,8,8,8,8,8,8,8,8,8,8,8,8,8,8,8,8,7,0,0,0,0,0,0,0,0,0,0,0,0,0,0,0,0,0,0,0,0,0,0,0,0,0,0,0,0,0,0,0,0,0,0,0,0,0,0,0,0,0,0,0,0,0,0],"split_type":[0,0,0,0,0,0,0,0,0,0,0,0,0,0,0,0,0,0,0,0,0,0,0,0,0,0,0,0,0,0,0,0,0,0,0,0,0,0,0,0,0,0,0,0,0,0,0,0,0,0,0,0,0,0,0,0,0,0,0,0,0,0,0,0,0,0,0,0,0,0,0,0,0,0,0,0,0,0,0,0,0,0,0,0,0,0,0,0,0,0,0],"sum_hessian":[1.87902E5,1.75932E5,1.197E4,8.1394E4,9.4538E4,1.1969E4,1E0,4.4571E4,3.6823E4,7.6651E4,1.7887E4,1.1161E4,8.08E2,1.2356E4,3.2215E4,2.1034E4,1.5789E4,5.1315E4,2.5336E4,1.0703E4,7.184E3,7.543E3,3.618E3,8.07E2,1E0,2.922E3,9.434E3,1.5519E4,1.6696E4,1.1198E4,9.836E3,6.993E3,8.796E3,1.9086E4,3.2229E4,1.676E4,8.576E3,5.341E3,5.362E3,3.662E3,3.522E3,4.599E3,2.944E3,2.211E3,1.407E3,6.96E2,1.11E2,7.34E2,2.188E3,3.655E3,5.779E3,6.478E3,9.041E3,7.774E3,8.922E3,5.952E3,5.246E3,7.297E3,2.539E3,4.83E3,2.163E3,5.908E3,2.888E3,9.441E3,9.645E3,1.9638E4,1.2591E4,1.1768E4,4.992E3,4.565E3,4.011E3,3.269E3,2.072E3,3.122E3,2.24E3,2.962E3,7E2,2.247E3,1.275E3,2.182E3,2.417E3,1.161E3,1.783E3,1.264E3,9.47E2,8.82E2,5.25E2,4.19E2,2.77E2,1.2E1,9.9E1],"tree_param":{"num_deleted":"0","num_feature":"18","num_nodes":"91","size_leaf_vector":"1"}},{"base_weights":[-1.7777412E-1,-1.7673413E2,2.6072346E3,-5.477533E2,1.4370032E2,2.5803271E3,1.1305785E4,-6.728116E2,-3.8550287E2,2.085622E1,7.096388E2,2.256379E3,6.5258354E3,-7.8360297E2,-6.1311194E2,-4.4466675E2,-2.7691986E2,-5.606611E1,1.7143753E2,5.4018445E2,9.386677E2,1.7302755E3,3.114106E3,6.2471357E3,9.026952E3,-8.9964E2,-7.5061163E2,-6.621209E2,-5.789973E2,-4.9023682E2,-4.0100467E2,-3.2352356E2,-2.4930058E2,-1.2474551E2,-7.70499E0,1.0762965E2,2.8412335E2,4.4522177E2,6.179208E2,8.370778E2,1.1010328E3,1.5035725E3,2.194461E3,2.8209238E3,3.7912332E3,4.9214087E3,8.701993E3,-7.016539E1,-6.114113E1,-5.456094E1,-5.03001E1,-4.8129494E1,-4.5641834E1,-4.228763E1,-3.9018955E1,-3.5713573E1,-3.2308037E1,-2.9399784E1,-2.6511606E1,-2.442494E1,-2.1821241E1,-1.8726217E1,-1.529774E1,-1.12248955E1,-6.0022435E0,-2.0813565E0,1.8943545E0,5.879089E0,1.1402569E1,1.6671461E1,2.2800926E1,2.9259212E1,3.5290062E1,3.985591E1,4.7881546E1,5.5407475E1,6.477213E1,7.326856E1,8.1689E1,9.209352E1,1.1718519E2,1.4440884E2,1.631645E2,1.8644795E2,2.2004227E2,2.4248466E2,2.7272382E2,6.685761E2,3.4000888E2,2.6817874E2,6.9500934E2],"categories":[],"categories_nodes":[],"categories_segments":[],"categories_sizes":[],"default_left":[0,0,0,0,0,0,0,0,0,0,0,0,0,0,0,0,0,0,0,0,0,0,0,0,0,0,0,0,0,0,0,0,0,0,0,0,0,0,0,0,0,0,0,0,0,0,0,0,0,0,0,0,0,0,0,0,0,0,0,0,0,0,0,0,0,0,0,0,0,0,0,0,0,0,0,0,0,0,0,0,0,0,0,0,0,0,0,0,0,0,0],"id":10,"left_children":[1,3,5,7,9,11,-1,13,15,17,19,21,23,25,27,29,31,33,35,37,39,41,43,45,-1,47,49,51,53,55,57,59,61,63,65,67,69,71,73,75,77,79,81,83,85,87,89,-1,-1,-1,-1,-1,-1,-1,-1,-1,-1,-1,-1,-1,-1,-1,-1,-1,-1,-1,-1,-1,-1,-1,-1,-1,-1,-1,-1,-1,-1,-1,-1,-1,-1,-1,-1,-1,-1,-1,-1,-1,-1,-1,-1],"loss_changes":[8.644689E10,2.0909265E10,5.050277E10,1.6535204E9,6.560865E9,1.5205376E10,0E0,3.0394368E8,2.2780058E8,8.9817197E8,6.5270374E8,4.9610957E9,3.0005981E10,6.1008896E7,4.963021E7,4.549427E7,1.602944E7,1.7046718E8,1.884832E8,7.115366E7,1.1711386E8,7.148032E8,8.197243E8,2.8927058E9,0E0,8.70912E6,1.10336E7,2.70336E6,9.227264E6,6.196224E6,4.802816E6,1.285376E6,4.347744E6,2.9437856E7,2.3067436E7,2.186E7,1.804544E7,6.783808E6,1.6677376E7,1.6973568E7,8.63744E6,1.4482534E8,3.532595E7,1.4000128E8,2.97472E7,1.2821299E8,1.8441339E9,0E0,0E0,0E0,0E0,0E0,0E0,0E0,0E0,0E0,0E0,0E0,0E0,0E0,0E0,0E0,0E0,0E0,0E0,0E0,0E0,0E0,0E0,0E0,0E0,0E0,0E0,0E0,0E0,0E0,0E0,0E0,0E0,0E0,0E0,0E0,0E0,0E0,0E0,0E0,0E0,0E0,0E0,0E0,0E0],"parents":[2147483647,0,0,1,1,2,2,3,3,4,4,5,5,7,7,8,8,9,9,10,10,11,11,12,12,13,13,14,14,15,15,16,16,17,17,18,18,19,19,20,20,21,21,22,22,23,23,25,25,26,26,27,27,28,28,29,29,30,30,31,31,32,32,33,33,34,34,35,35,36,36,37,37,38,38,39,39,40,40,41,41,42,42,43,43,44,44,45,45,46,46],"right_children":[2,4,6,8,10,12,-1,14,16,18,20,22,24,26,28,30,32,34,36,38,40,42,44,46,-1,48,50,52,54,56,58,60,62,64,66,68,70,72,74,76,78,80,82,84,86,88,90,-1,-1,-1,-1,-1,-1,-1,-1,-1,-1,-1,-1,-1,-1,-1,-1,-1,-1,-1,-1,-1,-1,-1,-1,-1,-1,-1,-1,-1,-1,-1,-1,-1,-1,-1,-1,-1,-1,-1,-1,-1,-1,-1,-1],"split_conditions":[5E3,1.98E3,4.2E5,1.26E3,3.15E3,1.1E4,1.1305785E4,9.05E2,1.62E3,2.49E3,3.9E3,7.46E3,8.4E1,7E2,1.1E3,1.46E3,1.8E3,2.25E3,2.8E3,3.5E3,4.5E3,6.3E3,9.5E3,1.058E3,9.026952E3,4.7E2,8.2E2,1E3,1.175E3,1.4E3,1.55E3,1.7E3,1.9E3,2.15E3,2.375E3,2.62E3,2.955E3,3.35E3,3.65E3,4.15E3,4.65E3,5.5E3,7E3,8.5E3,1E4,4E0,1.25E4,-7.016539E1,-6.114113E1,-5.456094E1,-5.03001E1,-4.8129494E1,-4.5641834E1,-4.228763E1,-3.9018955E1,-3.5713573E1,-3.2308037E1,-2.9399784E1,-2.6511606E1,-2.442494E1,-2.1821241E1,-1.8726217E1,-1.529774E1,-1.12248955E1,-6.0022435E0,-2.0813565E0,1.8943545E0,5.879089E0,1.1402569E1,1.6671461E1,2.2800926E1,2.9259212E1,3.5290062E1,3.985591E1,4.7881546E1,5.5407475E1,6.477213E1,7.326856E1,8.1689E1,9.209352E1,1.1718519E2,1.4440884E2,1.631645E2,1.8644795E2,2.2004227E2,2.4248466E2,2.7272382E2,6.685761E2,3.4000888E2,2.6817874E2,6.9500934E2],"split_indices":[8,8,6,8,8,6,0,8,8,8,8,8,4,8,8,8,8,8,8,8,8,8,8,2,0,8,8,8,8,8,8,8,8,8,8,8,8,8,8,8,8,8,8,8,8,0,7,0,0,0,0,0,0,0,0,0,0,0,0,0,0,0,0,0,0,0,0,0,0,0,0,0,0,0,0,0,0,0,0,0,0,0,0,0,0,0,0,0,0,0,0],"split_type":[0,0,0,0,0,0,0,0,0,0,0,0,0,0,0,0,0,0,0,0,0,0,0,0,0,0,0,0,0,0,0,0,0,0,0,0,0,0,0,0,0,0,0,0,0,0,0,0,0,0,0,0,0,0,0,0,0,0,0,0,0,0,0,0,0,0,0,0,0,0,0,0,0,0,0,0,0,0,0,0,0,0,0,0,0,0,0,0,0,0,0],"sum_hessian":[1.87781E5,1.75873E5,1.1908E4,8.1503E4,9.437E4,1.1907E4,1E0,4.6025E4,3.5478E4,7.754E4,1.683E4,1.1005E4,9.02E2,1.6112E4,2.9913E4,2.2963E4,1.2515E4,5.1323E4,2.6217E4,9.675E3,7.155E3,6.823E3,4.182E3,9.01E2,1E0,3.561E3,1.2551E4,1.2269E4,1.7644E4,1.1231E4,1.1732E4,4.653E3,7.862E3,2.1206E4,3.0117E4,1.674E4,9.477E3,4.358E3,5.317E3,4.405E3,2.75E3,4.587E3,2.236E3,2.922E3,1.26E3,5.87E2,3.14E2,7.16E2,2.845E3,6.594E3,5.957E3,3.466E3,8.803E3,8.143E3,9.501E3,6.614E3,4.617E3,6.322E3,5.41E3,1.466E3,3.187E3,4.933E3,2.929E3,1.1083E4,1.0123E4,1.8436E4,1.1681E4,1.1726E4,5.014E3,4.506E3,4.971E3,2.986E3,1.372E3,3.071E3,2.246E3,2.912E3,1.493E3,1.517E3,1.233E3,2.186E3,2.401E3,1.147E3,1.089E3,1.97E3,9.52E2,3.14E2,9.46E2,6E0,5.81E2,6.4E1,2.5E2],"tree_param":{"num_deleted":"0","num_feature":"18","num_nodes":"91","size_leaf_vector":"1"}},{"base_weights":[4.3515453E0,-1.5263675E2,2.6232673E3,-4.8972528E2,1.6807965E2,2.5940938E3,1.0910084E4,-6.116373E2,-3.1438272E2,4.4256634E1,7.4474475E2,2.2652817E3,6.552843E3,-7.1674066E2,-5.501493E2,-3.8963345E2,-2.2473216E2,-1.3118843E1,2.5114014E2,5.9482996E2,1.0204091E3,1.7934835E3,3.063935E3,5.4990596E3,1.4543452E4,-8.08426E2,-6.7820844E2,-5.938568E2,-5.1134607E2,-4.3266797E2,-3.653517E2,-2.6527548E2,-1.8415094E2,-6.846893E1,4.3313473E1,1.771364E2,3.1369373E2,5.09114E2,7.0927356E2,9.1595953E2,1.1357186E3,1.5005048E3,2.102912E3,2.7255288E3,3.5879524E3,4.986398E3,1.0947334E4,9.296159E4,1.1828258E4,-6.268171E1,-5.4409893E1,-4.9201645E1,-4.5640656E1,-4.280436E1,-4.006927E1,-3.712513E1,-3.392349E1,-3.0891537E1,-2.9041645E1,-2.6881498E1,-2.3795631E1,-2.0430407E1,-1.7484488E1,-1.4214457E1,-1.2150226E1,-8.079193E0,-3.2743485E0,5.3185475E-1,5.0456266E0,1.0464973E1,1.38952875E1,1.9684385E1,2.5333948E1,3.1662027E1,3.7826195E1,4.6761784E1,5.2137684E1,6.0110416E1,6.808874E1,7.59983E1,8.2444466E1,9.662157E1,1.1466547E2,1.3416635E2,1.555231E2,1.8028362E2,2.0482324E2,2.3541289E2,2.6563422E2,3.1575565E2,4.7475424E2,2.3160547E3,1.6382628E2,8.711009E3,1.0499587E3,1.1479873E3,4.0191824E2],"categories":[],"categories_nodes":[],"categories_segments":[],"categories_sizes":[],"default_left":[0,0,0,0,0,0,0,0,0,0,0,0,0,0,0,0,0,0,0,0,0,0,0,0,0,0,0,0,0,0,0,0,0,0,0,0,0,0,0,0,0,0,0,0,0,0,0,0,0,0,0,0,0,0,0,0,0,0,0,0,0,0,0,0,0,0,0,0,0,0,0,0,0,0,0,0,0,0,0,0,0,0,0,0,0,0,0,0,0,0,0,0,0,0,0,0,0],"id":11,"left_children":[1,3,5,7,9,11,-1,13,15,17,19,21,23,25,27,29,31,33,35,37,39,41,43,45,47,49,51,53,55,57,59,61,63,65,67,69,71,73,75,77,79,81,83,85,87,89,91,93,95,-1,-1,-1,-1,-1,-1,-1,-1,-1,-1,-1,-1,-1,-1,-1,-1,-1,-1,-1,-1,-1,-1,-1,-1,-1,-1,-1,-1,-1,-1,-1,-1,-1,-1,-1,-1,-1,-1,-1,-1,-1,-1,-1,-1,-1,-1,-1,-1],"loss_changes":[7.703143E10,1.9110115E10,4.6964113E10,1.842088E9,6.4679926E9,1.3776503E10,0E0,3.281367E8,2.3837978E8,8.8517594E8,6.611077E8,3.6811448E9,6.757368E9,6.572749E7,5.4098944E7,1.9921664E7,2.6494784E7,1.8236112E8,7.489581E7,1.0140416E8,6.6876416E7,5.546496E8,6.34284E8,1.953663E9,1.8914953E10,1.4334464E7,8.083968E6,5.350912E6,8.380928E6,8.81152E5,5.701248E6,3.251328E6,1.578144E6,3.0011616E7,2.9701312E7,4.351488E6,1.3641728E7,1.0293504E7,6.013184E6,8.790272E6,4.352E6,5.005773E7,6.1925376E7,5.898752E7,5.3385216E7,5.3225267E8,1.1546166E10,5.4965023E9,2.465748E9,0E0,0E0,0E0,0E0,0E0,0E0,0E0,0E0,0E0,0E0,0E0,0E0,0E0,0E0,0E0,0E0,0E0,0E0,0E0,0E0,0E0,0E0,0E0,0E0,0E0,0E0,0E0,0E0,0E0,0E0,0E0,0E0,0E0,0E0,0E0,0E0,0E0,0E0,0E0,0E0,0E0,0E0,0E0,0E0,0E0,0E0,0E0,0E0],"parents":[2147483647,0,0,1,1,2,2,3,3,4,4,5,5,7,7,8,8,9,9,10,10,11,11,12,12,13,13,14,14,15,15,16,16,17,17,18,18,19,19,20,20,21,21,22,22,23,23,24,24,25,25,26,26,27,27,28,28,29,29,30,30,31,31,32,32,33,33,34,34,35,35,36,36,37,37,38,38,39,39,40,40,41,41,42,42,43,43,44,44,45,45,46,46,47,47,48,48],"right_children":[2,4,6,8,10,12,-1,14,16,18,20,22,24,26,28,30,32,34,36,38,40,42,44,46,48,50,52,54,56,58,60,62,64,66,68,70,72,74,76,78,80,82,84,86,88,90,92,94,96,-1,-1,-1,-1,-1,-1,-1,-1,-1,-1,-1,-1,-1,-1,-1,-1,-1,-1,-1,-1,-1,-1,-1,-1,-1,-1,-1,-1,-1,-1,-1,-1,-1,-1,-1,-1,-1,-1,-1,-1,-1,-1,-1,-1,-1,-1,-1,-1],"split_conditions":[5.2E3,2.025E3,4.2E5,1.35E3,3.3E3,1.2E4,1.0910084E4,9.8E2,1.7E3,2.65E3,4.15E3,7.75E3,4.4E1,7.5E2,1.15E3,1.494E3,1.9E3,2.34E3,2.9E3,3.75E3,4.65E3,6.3E3,9.5E3,1.328E3,6.02E2,5.46E2,8.9E2,1.06E3,1.235E3,1.42E3,1.58E3,1.76E3,1.98E3,2.2E3,2.45E3,2.75E3,3.025E3,3.5E3,4E3,4.5E3,5E3,5.75E3,7E3,8.5E3,9.9E3,3.07E2,9.7E1,1.45E2,1E0,-6.268171E1,-5.4409893E1,-4.9201645E1,-4.5640656E1,-4.280436E1,-4.006927E1,-3.712513E1,-3.392349E1,-3.0891537E1,-2.9041645E1,-2.6881498E1,-2.3795631E1,-2.0430407E1,-1.7484488E1,-1.4214457E1,-1.2150226E1,-8.079193E0,-3.2743485E0,5.3185475E-1,5.0456266E0,1.0464973E1,1.38952875E1,1.9684385E1,2.5333948E1,3.1662027E1,3.7826195E1,4.6761784E1,5.2137684E1,6.0110416E1,6.808874E1,7.59983E1,8.2444466E1,9.662157E1,1.1466547E2,1.3416635E2,1.555231E2,1.8028362E2,2.0482324E2,2.3541289E2,2.6563422E2,3.1575565E2,4.7475424E2,2.3160547E3,1.6382628E2,8.711009E3,1.0499587E3,1.1479873E3,4.0191824E2],"split_indices":[8,8,6,8,8,8,0,8,8,8,8,8,12,8,8,8,8,8,8,8,8,8,8,2,2,8,8,8,8,8,8,8,8,8,8,8,8,8,8,8,8,8,8,8,6,1,1,1,3,0,0,0,0,0,0,0,0,0,0,0,0,0,0,0,0,0,0,0,0,0,0,0,0,0,0,0,0,0,0,0,0,0,0,0,0,0,0,0,0,0,0,0,0,0,0,0,0],"split_type":[0,0,0,0,0,0,0,0,0,0,0,0,0,0,0,0,0,0,0,0,0,0,0,0,0,0,0,0,0,0,0,0,0,0,0,0,0,0,0,0,0,0,0,0,0,0,0,0,0,0,0,0,0,0,0,0,0,0,0,0,0,0,0,0,0,0,0,0,0,0,0,0,0,0,0,0,0,0,0,0,0,0,0,0,0,0,0,0,0,0,0,0,0,0,0,0,0],"sum_hessian":[1.87359E5,1.76764E5,1.0595E4,8.6182E4,9.0582E4,1.0594E4,1E0,5.0835E4,3.5347E4,7.4571E4,1.6011E4,9.783E3,8.11E2,1.8759E4,3.2076E4,1.9215E4,1.6132E4,5.8381E4,1.619E4,1.0373E4,5.638E3,6.152E3,3.631E3,7.18E2,9.3E1,5.545E3,1.3214E4,1.5078E4,1.6998E4,6.925E3,1.229E4,8.067E3,8.065E3,2.9473E4,2.8908E4,7.418E3,8.772E3,5.934E3,4.439E3,2.963E3,2.675E3,3.163E3,2.989E3,2.21E3,1.421E3,6.58E2,6E1,2E0,9.1E1,1.454E3,4.091E3,6.792E3,6.422E3,8.258E3,6.82E3,9.921E3,7.077E3,4.645E3,2.28E3,7.077E3,5.213E3,2.964E3,5.103E3,2.886E3,5.179E3,9.313E3,2.016E4,1.2897E4,1.6011E4,3.238E3,4.18E3,5.245E3,3.527E3,2.112E3,3.822E3,2.064E3,2.375E3,1.483E3,1.48E3,1.234E3,1.441E3,1.694E3,1.469E3,1.171E3,1.818E3,1.272E3,9.38E2,6.89E2,7.32E2,5.23E2,1.35E2,1.6E1,4.4E1,1E0,1E0,5.1E1,4E1],"tree_param":{"num_deleted":"0","num_feature":"18","num_nodes":"97","size_leaf_vector":"1"}},{"base_weights":[1.0782834E0,-1.5253453E2,2.2530378E3,-4.7401053E2,1.2467151E2,1.9486246E3,5.840634E3,-5.861827E2,-3.3855695E2,1.8795347E1,6.130862E2,1.4945221E3,2.6927534E3,5.5905435E3,8.406123E3,-6.969246E2,-5.429485E2,-4.0021283E2,-2.565833E2,-3.7451786E1,1.7501974E2,4.6715143E2,8.123395E2,1.2224755E3,1.7857198E3,2.4400183E3,3.2721228E3,4.8551626E3,1.1019099E4,-7.923737E2,-6.674413E2,-5.833224E2,-5.0588025E2,-4.3332962E2,-3.624033E2,-3.0308847E2,-2.2016344E2,-9.975315E1,1.0655468E1,1.252817E2,2.6640866E2,3.860042E2,5.327256E2,7.2360126E2,9.5286365E2,1.1363411E3,1.3623838E3,1.6324844E3,1.9743533E3,2.304885E3,2.71941E3,2.0913364E2,3.3668052E3,4.440768E3,1.0823096E4,2.336168E4,9.427798E3,-6.0962612E1,-5.3667496E1,-4.8942787E1,-4.5346085E1,-4.2424915E1,-3.969859E1,-3.6669704E1,-3.4041763E1,-3.1622673E1,-2.8878363E1,-2.7035265E1,-2.487406E1,-2.2324423E1,-1.9877426E1,-1.6831692E1,-1.3626818E1,-9.740942E0,-4.8089128E0,-7.287662E-1,3.3386405E0,6.5414596E0,1.1486688E1,1.6221745E1,1.9721666E1,2.53366E1,3.0628328E1,3.438361E1,4.1427048E1,4.796287E1,5.597917E1,6.325524E1,7.081435E1,7.666199E1,8.511914E1,9.205018E1,9.881788E1,1.0912014E2,1.2125139E2,1.3693239E2,1.54246E2,1.5370273E2,1.7083736E2,1.8509496E2,2.0614613E2,3.974607E2,2.3439299E2,4.5051224E2,2.9913922E2,1.6780705E2,2.2406138E3,6.930323E2,1.7544714E3,5.643048E2,9.392965E2],"categories":[],"categories_nodes":[],"categories_segments":[],"categories_sizes":[],"default_left":[0,0,0,0,0,0,0,0,0,0,0,0,0,0,0,0,0,0,0,0,0,0,0,0,0,0,0,0,0,0,0,0,0,0,0,0,0,0,0,0,0,0,0,0,0,0,0,0,0,0,0,0,0,0,0,0,0,0,0,0,0,0,0,0,0,0,0,0,0,0,0,0,0,0,0,0,0,0,0,0,0,0,0,0,0,0,0,0,0,0,0,0,0,0,0,0,0,0,0,0,0,0,0,0,0,0,0,0,0,0,0],"id":12,"left_children":[1,3,5,7,9,11,13,15,17,19,21,23,25,27,-1,29,31,33,35,37,39,41,43,45,47,49,51,53,55,57,59,61,63,65,67,69,71,73,75,77,79,81,83,85,87,89,91,93,95,97,99,-1,101,103,105,107,109,-1,-1,-1,-1,-1,-1,-1,-1,-1,-1,-1,-1,-1,-1,-1,-1,-1,-1,-1,-1,-1,-1,-1,-1,-1,-1,-1,-1,-1,-1,-1,-1,-1,-1,-1,-1,-1,-1,-1,-1,-1,-1,-1,-1,-1,-1,-1,-1,-1,-1,-1,-1,-1,-1],"loss_changes":[6.50016E10,1.5675849E10,1.309286E10,1.2373463E9,4.884499E9,3.7339464E9,2.6129177E10,2.1293056E8,1.8638566E8,6.821549E8,4.8894515E8,5.422131E8,6.056919E8,3.6870574E9,0E0,3.466445E7,4.7666176E7,2.6209024E7,2.6765056E7,1.7107826E8,9.338138E7,5.1494784E7,8.80087E7,4.130509E7,9.265562E7,1.0405274E8,2.4152064E7,1.9971727E9,1.9598746E9,5.27616E6,5.50784E6,5.306368E6,5.624064E6,4.109312E6,1.5168E6,2.015296E6,4.550688E6,3.0423616E7,2.5133546E7,1.64296E7,3.783552E6,5.229632E6,1.2890112E7,1.2210688E7,7.04E6,5.905152E6,1.296896E6,1.0773504E7,1.862144E6,2.3892992E7,8.273408E6,0E0,2.1029888E7,2.3125709E8,9.384156E9,2.6820096E7,4.3707904E8,0E0,0E0,0E0,0E0,0E0,0E0,0E0,0E0,0E0,0E0,0E0,0E0,0E0,0E0,0E0,0E0,0E0,0E0,0E0,0E0,0E0,0E0,0E0,0E0,0E0,0E0,0E0,0E0,0E0,0E0,0E0,0E0,0E0,0E0,0E0,0E0,0E0,0E0,0E0,0E0,0E0,0E0,0E0,0E0,0E0,0E0,0E0,0E0,0E0,0E0,0E0,0E0,0E0,0E0],"parents":[2147483647,0,0,1,1,2,2,3,3,4,4,5,5,6,6,7,7,8,8,9,9,10,10,11,11,12,12,13,13,15,15,16,16,17,17,18,18,19,19,20,20,21,21,22,22,23,23,24,24,25,25,26,26,27,27,28,28,29,29,30,30,31,31,32,32,33,33,34,34,35,35,36,36,37,37,38,38,39,39,40,40,41,41,42,42,43,43,44,44,45,45,46,46,47,47,48,48,49,49,50,50,52,52,53,53,54,54,55,55,56,56],"right_children":[2,4,6,8,10,12,14,16,18,20,22,24,26,28,-1,30,32,34,36,38,40,42,44,46,48,50,52,54,56,58,60,62,64,66,68,70,72,74,76,78,80,82,84,86,88,90,92,94,96,98,100,-1,102,104,106,108,110,-1,-1,-1,-1,-1,-1,-1,-1,-1,-1,-1,-1,-1,-1,-1,-1,-1,-1,-1,-1,-1,-1,-1,-1,-1,-1,-1,-1,-1,-1,-1,-1,-1,-1,-1,-1,-1,-1,-1,-1,-1,-1,-1,-1,-1,-1,-1,-1,-1,-1,-1,-1,-1,-1],"split_conditions":[5E3,1.98E3,1.1E4,1.25E3,3.15E3,7.46E3,8.4E1,9E2,1.6E3,2.52E3,3.9E3,6E3,9.5E3,4.3E1,8.406123E3,6.3E2,1.08E3,1.42E3,1.75E3,2.275E3,2.84E3,3.5E3,4.5E3,5.5E3,6.725E3,8.5E3,1E4,1.328E3,4E0,4.7E2,7.95E2,9.8E2,1.175E3,1.32E3,1.494E3,1.65E3,1.85E3,2.15E3,2.415E3,2.67E3,2.955E3,3.35E3,3.65E3,4.15E3,4.65E3,5.2E3,5.5E3,6.3E3,7.3E3,8E3,8.8E3,2.0913364E2,2.6E1,9.03E2,1.6E1,1.6E1,1.7438E3,-6.0962612E1,-5.3667496E1,-4.8942787E1,-4.5346085E1,-4.2424915E1,-3.969859E1,-3.6669704E1,-3.4041763E1,-3.1622673E1,-2.8878363E1,-2.7035265E1,-2.487406E1,-2.2324423E1,-1.9877426E1,-1.6831692E1,-1.3626818E1,-9.740942E0,-4.8089128E0,-7.287662E-1,3.3386405E0,6.5414596E0,1.1486688E1,1.6221745E1,1.9721666E1,2.53366E1,3.0628328E1,3.438361E1,4.1427048E1,4.796287E1,5.597917E1,6.325524E1,7.081435E1,7.666199E1,8.511914E1,9.205018E1,9.881788E1,1.0912014E2,1.2125139E2,1.3693239E2,1.54246E2,1.5370273E2,1.7083736E2,1.8509496E2,2.0614613E2,3.974607E2,2.3439299E2,4.5051224E2,2.9913922E2,1.6780705E2,2.2406138E3,6.930323E2,1.7544714E3,5.643048E2,9.392965E2],"split_indices":[8,8,6,8,8,8,4,8,8,8,8,8,8,12,0,8,8,8,8,8,8,8,8,8,8,8,8,2,0,8,8,8,8,8,8,8,8,8,8,8,8,8,8,8,8,8,6,8,6,8,6,0,12,14,0,13,17,0,0,0,0,0,0,0,0,0,0,0,0,0,0,0,0,0,0,0,0,0,0,0,0,0,0,0,0,0,0,0,0,0,0,0,0,0,0,0,0,0,0,0,0,0,0,0,0,0,0,0,0,0,0],"split_type":[0,0,0,0,0,0,0,0,0,0,0,0,0,0,0,0,0,0,0,0,0,0,0,0,0,0,0,0,0,0,0,0,0,0,0,0,0,0,0,0,0,0,0,0,0,0,0,0,0,0,0,0,0,0,0,0,0,0,0,0,0,0,0,0,0,0,0,0,0,0,0,0,0,0,0,0,0,0,0,0,0,0,0,0,0,0,0,0,0,0,0,0,0,0,0,0,0,0,0,0,0,0,0,0,0,0,0,0,0,0,0],"sum_hessian":[1.87902E5,1.75904E5,1.1998E4,8.1448E4,9.4456E4,1.1061E4,9.37E2,4.4551E4,3.6897E4,7.7629E4,1.6827E4,6.871E3,4.19E3,9.36E2,1E0,1.2505E4,3.2046E4,2.1056E4,1.5841E4,5.7079E4,2.055E4,9.715E3,7.112E3,3.555E3,3.316E3,2.921E3,1.269E3,8.26E2,1.1E2,2.945E3,9.56E3,1.5332E4,1.6714E4,1.1219E4,9.837E3,6.954E3,8.887E3,2.487E4,3.2209E4,1.3309E4,7.241E3,4.345E3,5.37E3,4.363E3,2.749E3,2.206E3,1.349E3,1.835E3,1.481E3,1.975E3,9.46E2,3.25E2,9.44E2,7.74E2,5.2E1,1.1E1,9.9E1,7.18E2,2.227E3,3.641E3,5.919E3,6.362E3,8.97E3,8.699E3,8.015E3,5.936E3,5.283E3,2.237E3,7.6E3,3.796E3,3.158E3,4.944E3,3.943E3,1.096E4,1.391E4,2.0532E4,1.1677E4,7.314E3,5.995E3,2.225E3,5.016E3,2.968E3,1.377E3,3.159E3,2.211E3,2.906E3,1.457E3,1.505E3,1.244E3,1.464E3,7.42E2,7.02E2,6.47E2,1.065E3,7.7E2,1.381E3,1E2,1.104E3,8.71E2,7.19E2,2.27E2,5E0,9.39E2,5.7E1,7.17E2,3.8E1,1.4E1,2E0,9E0,7.6E1,2.3E1],"tree_param":{"num_deleted":"0","num_feature":"18","num_nodes":"111","size_leaf_vector":"1"}},{"base_weights":[1.5733119E0,-1.3203932E2,2.2589836E3,-4.2378918E2,1.4607674E2,2.2312854E3,1.0234017E4,-5.29206E2,-2.7237564E2,3.8811874E1,6.4701953E2,1.9318033E3,5.299302E3,-6.2002496E2,-4.7578955E2,-3.3685074E2,-1.9465982E2,-1.2205128E1,2.1280765E2,5.156667E2,8.846249E2,1.5459725E3,2.6050085E3,5.055786E3,8.111909E3,-7.0000714E2,-5.862781E2,-5.1366266E2,-4.4221338E2,-3.5904706E2,-3.0088986E2,-2.2928413E2,-1.6025598E2,-5.9566208E1,3.614307E1,1.4328093E2,2.6651453E2,4.4060925E2,6.135932E2,7.930785E2,9.828313E2,1.2975201E3,1.81568E3,2.3596729E3,3.030357E3,4.5137363E3,9.611622E3,-5.3726673E1,-4.679111E1,-4.2965508E1,-3.9811382E1,-3.7305973E1,-3.490188E1,-3.2093163E1,-2.9340647E1,-2.6390005E1,-2.3781353E1,-2.2113686E1,-2.0509464E1,-1.7658075E1,-1.5110703E1,-1.253466E1,-1.0706627E1,-6.1882114E0,-2.3535776E0,7.6559716E-1,4.5755925E0,8.727858E0,1.1504105E1,1.6690586E1,2.1919401E1,2.7452696E1,3.2709515E1,4.0474304E1,4.512515E1,5.2099648E1,5.885705E1,6.5812065E1,7.1378716E1,8.334949E1,9.93049E1,1.15964134E2,1.3430418E2,1.561814E2,1.7702211E2,1.944869E2,2.1814816E2,2.9605304E2,6.0927844E2,9.25246E2,3.284175E2],"categories":[],"categories_nodes":[],"categories_segments":[],"categories_sizes":[],"default_left":[0,0,0,0,0,0,0,0,0,0,0,0,0,0,0,0,0,0,0,0,0,0,0,0,0,0,0,0,0,0,0,0,0,0,0,0,0,0,0,0,0,0,0,0,0,0,0,0,0,0,0,0,0,0,0,0,0,0,0,0,0,0,0,0,0,0,0,0,0,0,0,0,0,0,0,0,0,0,0,0,0,0,0,0,0,0,0,0,0,0,0],"id":13,"left_children":[1,3,5,7,9,11,-1,13,15,17,19,21,23,25,27,29,31,33,35,37,39,41,43,45,-1,47,49,51,53,55,57,59,61,63,65,67,69,71,73,75,77,79,81,83,85,87,89,-1,-1,-1,-1,-1,-1,-1,-1,-1,-1,-1,-1,-1,-1,-1,-1,-1,-1,-1,-1,-1,-1,-1,-1,-1,-1,-1,-1,-1,-1,-1,-1,-1,-1,-1,-1,-1,-1,-1,-1,-1,-1,-1,-1],"loss_changes":[5.6544424E10,1.4361412E10,4.14411E10,1.3786112E9,4.869041E9,9.614356E9,0E0,2.4674918E8,1.7759974E8,6.625183E8,4.983127E8,2.475221E9,2.4485198E10,5.0484224E7,4.055296E7,1.5359488E7,1.9117888E7,1.3215699E8,6.314963E7,7.539174E7,5.035827E7,4.0439194E8,3.5558195E8,2.2532424E9,0E0,1.1399168E7,6.055424E6,4.109568E6,6.185216E6,4.024576E6,7.85536E5,2.4152E6,1.081232E6,2.1808848E7,2.1036076E7,2.869232E6,1.24208E7,7.347712E6,4.532736E6,6.243712E6,3.350272E6,3.923149E7,4.443853E7,4.23936E7,1.8833408E7,9.55903E8,1.6767212E9,0E0,0E0,0E0,0E0,0E0,0E0,0E0,0E0,0E0,0E0,0E0,0E0,0E0,0E0,0E0,0E0,0E0,0E0,0E0,0E0,0E0,0E0,0E0,0E0,0E0,0E0,0E0,0E0,0E0,0E0,0E0,0E0,0E0,0E0,0E0,0E0,0E0,0E0,0E0,0E0,0E0,0E0,0E0,0E0],"parents":[2147483647,0,0,1,1,2,2,3,3,4,4,5,5,7,7,8,8,9,9,10,10,11,11,12,12,13,13,14,14,15,15,16,16,17,17,18,18,19,19,20,20,21,21,22,22,23,23,25,25,26,26,27,27,28,28,29,29,30,30,31,31,32,32,33,33,34,34,35,35,36,36,37,37,38,38,39,39,40,40,41,41,42,42,43,43,44,44,45,45,46,46],"right_children":[2,4,6,8,10,12,-1,14,16,18,20,22,24,26,28,30,32,34,36,38,40,42,44,46,-1,48,50,52,54,56,58,60,62,64,66,68,70,72,74,76,78,80,82,84,86,88,90,-1,-1,-1,-1,-1,-1,-1,-1,-1,-1,-1,-1,-1,-1,-1,-1,-1,-1,-1,-1,-1,-1,-1,-1,-1,-1,-1,-1,-1,-1,-1,-1,-1,-1,-1,-1,-1,-1,-1,-1,-1,-1,-1,-1],"split_conditions":[5.2E3,2.025E3,4.2E5,1.35E3,3.3E3,1.1E4,1.0234017E4,9.8E2,1.7E3,2.62E3,4.15E3,7.75E3,8.4E1,7.5E2,1.15E3,1.53E3,1.9E3,2.335E3,2.84E3,3.75E3,4.65E3,6.3E3,9.5E3,4.4E1,8.111909E3,6E2,8.5E2,1.03E3,1.235E3,1.46E3,1.6E3,1.76E3,1.95E3,2.215E3,2.465E3,2.75E3,3.025E3,3.5E3,4E3,4.5E3,5E3,5.75E3,7E3,8.5E3,1E4,1.328E3,1E0,-5.3726673E1,-4.679111E1,-4.2965508E1,-3.9811382E1,-3.7305973E1,-3.490188E1,-3.2093163E1,-2.9340647E1,-2.6390005E1,-2.3781353E1,-2.2113686E1,-2.0509464E1,-1.7658075E1,-1.5110703E1,-1.253466E1,-1.0706627E1,-6.1882114E0,-2.3535776E0,7.6559716E-1,4.5755925E0,8.727858E0,1.1504105E1,1.6690586E1,2.1919401E1,2.7452696E1,3.2709515E1,4.0474304E1,4.512515E1,5.2099648E1,5.885705E1,6.5812065E1,7.1378716E1,8.334949E1,9.93049E1,1.15964134E2,1.3430418E2,1.561814E2,1.7702211E2,1.944869E2,2.1814816E2,2.9605304E2,6.0927844E2,9.25246E2,3.284175E2],"split_indices":[8,8,6,8,8,6,0,8,8,8,8,8,4,8,8,8,8,8,8,8,8,8,8,12,0,8,8,8,8,8,8,8,8,8,8,8,8,8,8,8,8,8,8,8,8,2,3,0,0,0,0,0,0,0,0,0,0,0,0,0,0,0,0,0,0,0,0,0,0,0,0,0,0,0,0,0,0,0,0,0,0,0,0,0,0,0,0,0,0,0,0],"split_type":[0,0,0,0,0,0,0,0,0,0,0,0,0,0,0,0,0,0,0,0,0,0,0,0,0,0,0,0,0,0,0,0,0,0,0,0,0,0,0,0,0,0,0,0,0,0,0,0,0,0,0,0,0,0,0,0,0,0,0,0,0,0,0,0,0,0,0,0,0,0,0,0,0,0,0,0,0,0,0,0,0,0,0,0,0,0,0,0,0,0,0],"sum_hessian":[1.87468E5,1.76993E5,1.0475E4,8.6379E4,9.0614E4,1.0474E4,1E0,5.0923E4,3.5456E4,7.4634E4,1.598E4,9.544E3,9.3E2,1.8855E4,3.2068E4,1.9377E4,1.6079E4,5.7713E4,1.6921E4,1.0293E4,5.687E3,6.069E3,3.475E3,9.29E2,1E0,5.589E3,1.3266E4,1.5063E4,1.7005E4,1.1976E4,7.401E3,8.011E3,8.068E3,2.9154E4,2.8559E4,7.376E3,9.545E3,5.83E3,4.463E3,2.948E3,2.739E3,3.162E3,2.907E3,2.208E3,1.267E3,8.32E2,9.7E1,1.773E3,3.816E3,5.152E3,8.114E3,6.592E3,8.471E3,9.962E3,7.043E3,6.197E3,5.779E3,2.537E3,4.864E3,2.947E3,5.064E3,2.25E3,5.818E3,1.3806E4,1.5348E4,1.5334E4,1.3225E4,3.921E3,3.455E3,5.961E3,3.584E3,2.076E3,3.754E3,2.095E3,2.368E3,1.466E3,1.482E3,1.282E3,1.457E3,1.686E3,1.476E3,1.149E3,1.758E3,1.263E3,9.45E2,3.31E2,9.36E2,7.81E2,5.1E1,5.5E1,4.2E1],"tree_param":{"num_deleted":"0","num_feature":"18","num_nodes":"91","size_leaf_vector":"1"}},{"base_weights":[1.3028995E0,-1.3241316E2,1.9516714E3,-4.096299E2,1.0791155E2,1.9284479E3,9.875825E3,-5.0052695E2,-2.8409702E2,1.6198645E1,5.308403E2,1.5730533E3,3.7792383E3,-5.867653E2,-4.5590402E2,-3.2902643E2,-2.0653429E2,-3.342526E1,1.4852515E2,4.0482562E2,7.023751E2,1.178982E3,2.022017E3,2.9505232E3,5.065317E3,-6.748644E2,-5.616606E2,-4.8471405E2,-4.200186E2,-3.6287204E2,-3.001272E2,-2.4208743E2,-1.8579915E2,-8.537582E1,8.898158E0,1.06127594E2,2.3009613E2,3.3428625E2,4.6146017E2,6.068783E2,8.014204E2,1.0358617E3,1.3779005E3,1.7905767E3,2.2936384E3,2.7987505E3,2.1644821E2,4.2542197E3,8.755541E3,-5.2980785E1,-4.5763744E1,-4.082525E1,-3.7638397E1,-3.51811E1,-3.2631542E1,-3.004485E1,-2.7967934E1,-2.651203E1,-2.4102203E1,-2.20279E1,-1.9811974E1,-1.8230444E1,-1.6344635E1,-1.4336786E1,-1.1739055E1,-8.164013E0,-3.8656085E0,-5.779171E-1,2.812776E0,5.575119E0,9.955396E0,1.3895752E1,1.7090195E1,2.1931446E1,2.6605595E1,2.9707441E1,3.583379E1,4.1526325E1,4.6318855E1,5.3181427E1,6.1212933E1,6.873429E1,8.113365E1,9.225312E1,1.0447523E2,1.197213E2,1.3276747E2,1.5400435E2,1.8134395E2,1.9681331E2,7.663502E1,2.7012143E2,5.5388947E2,1.5143424E3,5.1343787E2],"categories":[],"categories_nodes":[],"categories_segments":[],"categories_sizes":[],"default_left":[0,0,0,0,0,0,0,0,0,0,0,0,0,0,0,0,0,0,0,0,0,0,0,0,0,0,0,0,0,0,0,0,0,0,0,0,0,0,0,0,0,0,0,0,0,0,0,0,0,0,0,0,0,0,0,0,0,0,0,0,0,0,0,0,0,0,0,0,0,0,0,0,0,0,0,0,0,0,0,0,0,0,0,0,0,0,0,0,0,0,0,0,0,0,0],"id":14,"left_children":[1,3,5,7,9,11,-1,13,15,17,19,21,23,25,27,29,31,33,35,37,39,41,43,45,47,49,51,53,55,57,59,61,63,65,67,69,71,73,75,77,79,81,83,85,87,89,-1,91,93,-1,-1,-1,-1,-1,-1,-1,-1,-1,-1,-1,-1,-1,-1,-1,-1,-1,-1,-1,-1,-1,-1,-1,-1,-1,-1,-1,-1,-1,-1,-1,-1,-1,-1,-1,-1,-1,-1,-1,-1,-1,-1,-1,-1,-1,-1],"loss_changes":[4.904913E10,1.1726055E10,3.871787E10,9.324544E8,3.6568486E9,7.9305974E9,0E0,1.8215322E8,1.1956019E8,5.0876874E8,3.628841E8,1.7887928E9,2.0558889E9,3.536435E7,3.2098816E7,2.1150208E7,9.239296E6,1.2389451E8,7.305526E7,3.8548864E7,6.6801664E7,1.5213568E8,2.9330227E8,1.6790528E7,2.2375322E9,5.696896E6,6.188288E6,5.508864E6,2.449152E6,2.816384E6,2.830656E6,6.7008E5,2.704256E6,2.3832592E7,1.6664559E7,1.3280512E7,3.158112E6,4.029408E6,9.827328E6,2.319744E6,9.959936E6,1.9734784E7,1.3531648E7,1.8550784E7,5.4690816E7,9.683968E6,0E0,8.7343616E8,2.329557E9,0E0,0E0,0E0,0E0,0E0,0E0,0E0,0E0,0E0,0E0,0E0,0E0,0E0,0E0,0E0,0E0,0E0,0E0,0E0,0E0,0E0,0E0,0E0,0E0,0E0,0E0,0E0,0E0,0E0,0E0,0E0,0E0,0E0,0E0,0E0,0E0,0E0,0E0,0E0,0E0,0E0,0E0,0E0,0E0,0E0,0E0],"parents":[2147483647,0,0,1,1,2,2,3,3,4,4,5,5,7,7,8,8,9,9,10,10,11,11,12,12,13,13,14,14,15,15,16,16,17,17,18,18,19,19,20,20,21,21,22,22,23,23,24,24,25,25,26,26,27,27,28,28,29,29,30,30,31,31,32,32,33,33,34,34,35,35,36,36,37,37,38,38,39,39,40,40,41,41,42,42,43,43,44,44,45,45,47,47,48,48],"right_children":[2,4,6,8,10,12,-1,14,16,18,20,22,24,26,28,30,32,34,36,38,40,42,44,46,48,50,52,54,56,58,60,62,64,66,68,70,72,74,76,78,80,82,84,86,88,90,-1,92,94,-1,-1,-1,-1,-1,-1,-1,-1,-1,-1,-1,-1,-1,-1,-1,-1,-1,-1,-1,-1,-1,-1,-1,-1,-1,-1,-1,-1,-1,-1,-1,-1,-1,-1,-1,-1,-1,-1,-1,-1,-1,-1,-1,-1,-1,-1],"split_conditions":[5E3,2E3,4.2E5,1.3E3,3.15E3,1E4,9.875825E3,9.05E2,1.62E3,2.502E3,3.9E3,6.725E3,1.25E4,7E2,1.14E3,1.46E3,1.8E3,2.28E3,2.84E3,3.5E3,4.25E3,5.75E3,8E3,1.12E4,1E1,4.7E2,8.2E2,1.02E3,1.22E3,1.4E3,1.55E3,1.7E3,1.85E3,2.16E3,2.415E3,2.67E3,2.955E3,3.35E3,3.65E3,4.15E3,4.65E3,5.5E3,6.3E3,7.46E3,8.8E3,1.2E1,2.1644821E2,1.328E3,4E0,-5.2980785E1,-4.5763744E1,-4.082525E1,-3.7638397E1,-3.51811E1,-3.2631542E1,-3.004485E1,-2.7967934E1,-2.651203E1,-2.4102203E1,-2.20279E1,-1.9811974E1,-1.8230444E1,-1.6344635E1,-1.4336786E1,-1.1739055E1,-8.164013E0,-3.8656085E0,-5.779171E-1,2.812776E0,5.575119E0,9.955396E0,1.3895752E1,1.7090195E1,2.1931446E1,2.6605595E1,2.9707441E1,3.583379E1,4.1526325E1,4.6318855E1,5.3181427E1,6.1212933E1,6.873429E1,8.113365E1,9.225312E1,1.0447523E2,1.197213E2,1.3276747E2,1.5400435E2,1.8134395E2,1.9681331E2,7.663502E1,2.7012143E2,5.5388947E2,1.5143424E3,5.1343787E2],"split_indices":[8,8,6,8,8,8,0,8,8,8,8,8,7,8,8,8,8,8,8,8,8,8,8,7,10,8,8,8,8,8,8,8,8,8,8,8,8,8,8,8,8,8,8,8,6,10,0,2,0,0,0,0,0,0,0,0,0,0,0,0,0,0,0,0,0,0,0,0,0,0,0,0,0,0,0,0,0,0,0,0,0,0,0,0,0,0,0,0,0,0,0,0,0,0,0],"split_type":[0,0,0,0,0,0,0,0,0,0,0,0,0,0,0,0,0,0,0,0,0,0,0,0,0,0,0,0,0,0,0,0,0,0,0,0,0,0,0,0,0,0,0,0,0,0,0,0,0,0,0,0,0,0,0,0,0,0,0,0,0,0,0,0,0,0,0,0,0,0,0,0,0,0,0,0,0,0,0,0,0,0,0,0,0,0,0,0,0,0,0,0,0,0,0],"sum_hessian":[1.88073E5,1.76007E5,1.2066E4,8.173E4,9.4277E4,1.2065E4,1E0,4.7403E4,3.4327E4,7.7477E4,1.68E4,1.0123E4,1.942E3,1.616E4,3.1243E4,2.1734E4,1.2593E4,5.6347E4,2.113E4,9.687E3,7.113E3,5.393E3,4.73E3,1.183E3,7.59E2,3.578E3,1.2582E4,1.7323E4,1.392E4,1.0005E4,1.1729E4,4.635E3,7.958E3,2.5296E4,3.1051E4,1.3905E4,7.225E3,4.317E3,5.37E3,3.625E3,3.488E3,3.14E3,2.253E3,2.558E3,2.172E3,5.81E2,6.02E2,6.24E2,1.35E2,7.25E2,2.853E3,6.612E3,5.97E3,8.809E3,8.514E3,9.593E3,4.327E3,5.382E3,4.623E3,6.326E3,5.403E3,1.469E3,3.166E3,3.876E3,4.082E3,1.242E4,1.2876E4,2.0055E4,1.0996E4,8.022E3,5.883E3,2.229E3,4.996E3,2.966E3,1.351E3,3.101E3,2.269E3,2.912E3,7.13E2,2.228E3,1.26E3,2.19E3,9.5E2,1.487E3,7.66E2,1.466E3,1.092E3,1.658E3,5.14E2,5.76E2,5E0,5.65E2,5.9E1,1.2E1,1.23E2],"tree_param":{"num_deleted":"0","num_feature":"18","num_nodes":"95","size_leaf_vector":"1"}},{"base_weights":[-6.181423E-1,-1.27091934E2,1.7454347E3,-3.8336462E2,9.263352E1,1.7240848E3,9.530172E3,-4.730317E2,-2.7625803E2,9.505096E0,4.610354E2,1.3892595E3,3.3465818E3,-5.6214795E2,-4.381324E2,-3.2475616E2,-2.1107181E2,-4.8297894E1,9.881145E1,3.444886E2,6.117208E2,1.0642092E3,1.843464E3,2.6637065E3,4.5526157E3,-6.3873E2,-5.378004E2,-4.6938623E2,-4.080087E2,-3.588246E2,-3.0089832E2,-2.4566505E2,-1.7969054E2,-1.09011154E2,-2.3104181E1,5.5137386E1,1.7201596E2,2.817251E2,3.9918454E2,5.483092E2,7.2178644E2,9.3516254E2,1.2840819E3,1.6672947E3,2.0835813E3,1.6844763E2,2.736831E3,6.854222E3,3.557305E3,-4.917925E1,-4.3198357E1,-3.938194E1,-3.6520367E1,-3.4122105E1,-3.1947216E1,-2.950601E1,-2.744075E1,-2.5476686E1,-2.4030756E1,-2.2270372E1,-2.0146814E1,-1.8023714E1,-1.6023575E1,-1.3521989E1,-1.1153583E1,-9.296403E0,-6.2604504E0,-3.442389E0,-3.7814823E-1,2.806181E0,5.610008E0,9.427601E0,1.44227705E1,1.7662506E1,2.084316E1,2.6325657E1,3.0978827E1,3.5480293E1,3.9979095E1,4.6508453E1,5.2117043E1,6.0308945E1,7.2338455E1,8.584711E1,9.735102E1,1.114919E2,1.236462E2,1.3737451E2,1.535153E2,1.9197136E2,6.927807E1,3.9751306E2,1.9757524E3,2.2218932E2,4.6755008E2],"categories":[],"categories_nodes":[],"categories_segments":[],"categories_sizes":[],"default_left":[0,0,0,0,0,0,0,0,0,0,0,0,0,0,0,0,0,0,0,0,0,0,0,0,0,0,0,0,0,0,0,0,0,0,0,0,0,0,0,0,0,0,0,0,0,0,0,0,0,0,0,0,0,0,0,0,0,0,0,0,0,0,0,0,0,0,0,0,0,0,0,0,0,0,0,0,0,0,0,0,0,0,0,0,0,0,0,0,0,0,0,0,0,0,0],"id":15,"left_children":[1,3,5,7,9,11,-1,13,15,17,19,21,23,25,27,29,31,33,35,37,39,41,43,45,47,49,51,53,55,57,59,61,63,65,67,69,71,73,75,77,79,81,83,85,87,-1,89,91,93,-1,-1,-1,-1,-1,-1,-1,-1,-1,-1,-1,-1,-1,-1,-1,-1,-1,-1,-1,-1,-1,-1,-1,-1,-1,-1,-1,-1,-1,-1,-1,-1,-1,-1,-1,-1,-1,-1,-1,-1,-1,-1,-1,-1,-1,-1],"loss_changes":[4.143476E10,9.851912E9,3.612939E10,7.755131E8,2.8847475E9,6.879453E9,0E0,1.364695E8,1.1628698E8,3.967488E8,3.043479E8,1.5491359E9,1.7725522E9,2.2715904E7,2.9553152E7,1.7043968E7,1.700384E7,7.136522E7,9.654093E7,3.3464832E7,5.238272E7,1.7261773E8,1.8184806E8,1.9492864E7,1.7670339E9,3.674368E6,3.45088E6,3.418112E6,3.312384E6,5.66656E5,2.711424E6,1.419552E6,2.229568E6,6.361744E6,1.5219558E7,7.115084E6,1.4306368E7,2.073824E6,5.068032E6,4.252544E6,3.10848E6,2.7051776E7,1.2218624E7,1.588992E7,2.0224512E7,0E0,7.805952E6,5.743063E9,6.34347E8,0E0,0E0,0E0,0E0,0E0,0E0,0E0,0E0,0E0,0E0,0E0,0E0,0E0,0E0,0E0,0E0,0E0,0E0,0E0,0E0,0E0,0E0,0E0,0E0,0E0,0E0,0E0,0E0,0E0,0E0,0E0,0E0,0E0,0E0,0E0,0E0,0E0,0E0,0E0,0E0,0E0,0E0,0E0,0E0,0E0,0E0],"parents":[2147483647,0,0,1,1,2,2,3,3,4,4,5,5,7,7,8,8,9,9,10,10,11,11,12,12,13,13,14,14,15,15,16,16,17,17,18,18,19,19,20,20,21,21,22,22,23,23,24,24,25,25,26,26,27,27,28,28,29,29,30,30,31,31,32,32,33,33,34,34,35,35,36,36,37,37,38,38,39,39,40,40,41,41,42,42,43,43,44,44,46,46,47,47,48,48],"right_children":[2,4,6,8,10,12,-1,14,16,18,20,22,24,26,28,30,32,34,36,38,40,42,44,46,48,50,52,54,56,58,60,62,64,66,68,70,72,74,76,78,80,82,84,86,88,-1,90,92,94,-1,-1,-1,-1,-1,-1,-1,-1,-1,-1,-1,-1,-1,-1,-1,-1,-1,-1,-1,-1,-1,-1,-1,-1,-1,-1,-1,-1,-1,-1,-1,-1,-1,-1,-1,-1,-1,-1,-1,-1,-1,-1,-1,-1,-1,-1],"split_conditions":[4.8E3,1.95E3,4.6E5,1.235E3,3.025E3,9.5E3,9.530172E3,8.9E2,1.58E3,2.425E3,3.8E3,6.725E3,1.2E4,6.3E2,1.08E3,1.4E3,1.75E3,2.17E3,2.7E3,3.4E3,4.25E3,5.75E3,8E3,1E4,3E0,4.7E2,7.95E2,9.8E2,1.175E3,1.32E3,1.494E3,1.65E3,1.85E3,2.05E3,2.29E3,2.53E3,2.84E3,3.2E3,3.6E3,4E3,4.5E3,5.2E3,6.3E3,7.46E3,8.5E3,1.6844763E2,1.2E1,1.111E3,3.07E2,-4.917925E1,-4.3198357E1,-3.938194E1,-3.6520367E1,-3.4122105E1,-3.1947216E1,-2.950601E1,-2.744075E1,-2.5476686E1,-2.4030756E1,-2.2270372E1,-2.0146814E1,-1.8023714E1,-1.6023575E1,-1.3521989E1,-1.1153583E1,-9.296403E0,-6.2604504E0,-3.442389E0,-3.7814823E-1,2.806181E0,5.610008E0,9.427601E0,1.44227705E1,1.7662506E1,2.084316E1,2.6325657E1,3.0978827E1,3.5480293E1,3.9979095E1,4.6508453E1,5.2117043E1,6.0308945E1,7.2338455E1,8.584711E1,9.735102E1,1.114919E2,1.236462E2,1.3737451E2,1.535153E2,1.9197136E2,6.927807E1,3.9751306E2,1.9757524E3,2.2218932E2,4.6755008E2],"split_indices":[8,8,8,8,8,8,0,8,8,8,8,8,8,8,8,8,8,8,8,8,8,8,8,8,3,8,8,8,8,8,8,8,8,8,8,8,8,8,8,8,8,8,8,8,8,0,10,2,1,0,0,0,0,0,0,0,0,0,0,0,0,0,0,0,0,0,0,0,0,0,0,0,0,0,0,0,0,0,0,0,0,0,0,0,0,0,0,0,0,0,0,0,0,0,0],"split_type":[0,0,0,0,0,0,0,0,0,0,0,0,0,0,0,0,0,0,0,0,0,0,0,0,0,0,0,0,0,0,0,0,0,0,0,0,0,0,0,0,0,0,0,0,0,0,0,0,0,0,0,0,0,0,0,0,0,0,0,0,0,0,0,0,0,0,0,0,0,0,0,0,0,0,0,0,0,0,0,0,0,0,0,0,0,0,0,0,0,0,0,0,0,0,0],"sum_hessian":[1.8763E5,1.74958E5,1.2672E4,8.0762E4,9.4196E4,1.2671E4,1E0,4.3958E4,3.6804E4,7.6855E4,1.7341E4,1.0505E4,2.166E3,1.2366E4,3.1592E4,2.1101E4,1.5703E4,4.6657E4,3.0198E4,9.78E3,7.561E3,6.125E3,4.38E3,1.385E3,7.81E2,2.977E3,9.389E3,1.5498E4,1.6094E4,8.685E3,1.2416E4,7.466E3,8.237E3,1.3682E4,3.2975E4,1.8915E4,1.1283E4,4.557E3,5.223E3,4.801E3,2.76E3,3.863E3,2.262E3,2.531E3,1.849E3,3.14E2,1.071E3,2.34E2,5.47E2,7.45E2,2.232E3,3.68E3,5.709E3,6.468E3,9.03E3,8.713E3,7.381E3,6.512E3,2.173E3,5.346E3,7.07E3,4.37E3,3.096E3,4.95E3,3.287E3,6.173E3,7.509E3,1.3334E4,1.9641E4,1.181E4,7.105E3,5.382E3,5.901E3,1.614E3,2.943E3,3.414E3,1.809E3,1.713E3,3.088E3,7.92E2,1.968E3,2.214E3,1.649E3,1.476E3,7.86E2,1.454E3,1.077E3,8.87E2,9.62E2,1.067E3,4E0,2.23E2,1.1E1,4.89E2,5.8E1],"tree_param":{"num_deleted":"0","num_feature":"18","num_nodes":"95","size_leaf_vector":"1"}},{"base_weights":[2.2363992E0,-1.0654086E2,1.8351346E3,-3.4077548E2,1.1707812E2,1.8102847E3,9.196615E3,-4.2675015E2,-2.2065471E2,3.0704025E1,5.2008325E2,1.5730629E3,4.7685127E3,-5.0059128E2,-3.849388E2,-2.7245465E2,-1.5711464E2,-9.943557E0,1.7147087E2,4.1466644E2,7.1132416E2,1.2449316E3,2.1297393E3,4.4896226E3,7.761077E3,-5.637161E2,-4.7305106E2,-4.153712E2,-3.5763464E2,-3.0275803E2,-2.5407765E2,-1.8482181E2,-1.2978569E2,-4.2812782E1,3.548417E1,1.286779E2,2.2759033E2,3.5442825E2,4.93647E2,6.380123E2,7.898136E2,1.0444541E3,1.4632029E3,1.898528E3,2.4774883E3,3.8668577E3,8.533305E3,-4.3911156E1,-3.7843212E1,-3.4221066E1,-3.1812677E1,-3.008074E1,-2.8157585E1,-2.5977987E1,-2.3827341E1,-2.2334044E1,-2.0721214E1,-1.8723963E1,-1.6549E1,-1.4254243E1,-1.2163232E1,-8.957379E0,-1.4505255E1,-4.815676E0,-1.4924996E0,1.235986E0,3.9046705E0,7.3443613E0,1.0825055E1,1.4818795E1,1.840378E1,2.3653406E1,2.8311304E1,3.26347E1,3.61862E1,4.1859966E1,4.739937E1,5.39699E1,5.9349903E1,6.853887E1,8.2379616E1,9.297414E1,1.08246925E2,1.255013E2,1.4261494E2,1.6495493E2,1.8518578E2,6.2080035E2,2.5850702E2,8.990204E2,2.0395526E2],"categories":[],"categories_nodes":[],"categories_segments":[],"categories_sizes":[],"default_left":[0,0,0,0,0,0,0,0,0,0,0,0,0,0,0,0,0,0,0,0,0,0,0,0,0,0,0,0,0,0,0,0,0,0,0,0,0,0,0,0,0,0,0,0,0,0,0,0,0,0,0,0,0,0,0,0,0,0,0,0,0,0,0,0,0,0,0,0,0,0,0,0,0,0,0,0,0,0,0,0,0,0,0,0,0,0,0,0,0,0,0],"id":16,"left_children":[1,3,5,7,9,11,-1,13,15,17,19,21,23,25,27,29,31,33,35,37,39,41,43,45,-1,47,49,51,53,55,57,59,61,63,65,67,69,71,73,75,77,79,81,83,85,87,89,-1,-1,-1,-1,-1,-1,-1,-1,-1,-1,-1,-1,-1,-1,-1,-1,-1,-1,-1,-1,-1,-1,-1,-1,-1,-1,-1,-1,-1,-1,-1,-1,-1,-1,-1,-1,-1,-1,-1,-1,-1,-1,-1,-1],"loss_changes":[3.737194E10,9.268138E9,3.356697E10,8.923955E8,3.151017E9,7.360934E9,0E0,1.5531315E8,1.1862106E8,4.2654707E8,3.2180173E8,1.7731994E9,2.2553901E10,3.1384064E7,2.6576896E7,1.0982784E7,1.223824E7,8.6374184E7,4.0083296E7,4.883827E7,3.2156672E7,2.6623078E8,2.8507136E8,1.9262106E9,0E0,7.775872E6,3.506688E6,2.690304E6,3.815936E6,7.28704E5,2.866048E6,1.63728E6,1.124864E6,1.87396E7,8.785848E6,5.831424E6,4.000192E6,4.69632E6,2.60672E6,4.197248E6,2.33536E6,2.6464256E7,3.0815232E7,2.8161024E7,2.295808E7,5.552333E8,2.4572242E9,0E0,0E0,0E0,0E0,0E0,0E0,0E0,0E0,0E0,0E0,0E0,0E0,0E0,0E0,0E0,0E0,0E0,0E0,0E0,0E0,0E0,0E0,0E0,0E0,0E0,0E0,0E0,0E0,0E0,0E0,0E0,0E0,0E0,0E0,0E0,0E0,0E0,0E0,0E0,0E0,0E0,0E0,0E0,0E0],"parents":[2147483647,0,0,1,1,2,2,3,3,4,4,5,5,7,7,8,8,9,9,10,10,11,11,12,12,13,13,14,14,15,15,16,16,17,17,18,18,19,19,20,20,21,21,22,22,23,23,25,25,26,26,27,27,28,28,29,29,30,30,31,31,32,32,33,33,34,34,35,35,36,36,37,37,38,38,39,39,40,40,41,41,42,42,43,43,44,44,45,45,46,46],"right_children":[2,4,6,8,10,12,-1,14,16,18,20,22,24,26,28,30,32,34,36,38,40,42,44,46,-1,48,50,52,54,56,58,60,62,64,66,68,70,72,74,76,78,80,82,84,86,88,90,-1,-1,-1,-1,-1,-1,-1,-1,-1,-1,-1,-1,-1,-1,-1,-1,-1,-1,-1,-1,-1,-1,-1,-1,-1,-1,-1,-1,-1,-1,-1,-1,-1,-1,-1,-1,-1,-1,-1,-1,-1,-1,-1,-1],"split_conditions":[5.2E3,2.025E3,4.2E5,1.32E3,3.3E3,1.25E4,9.196615E3,9.6E2,1.7E3,2.62E3,4.15E3,7.75E3,8.4E1,7.5E2,1.14E3,1.494E3,1.9E3,2.365E3,2.955E3,3.75E3,4.65E3,6.3E3,9.5E3,4.3E1,7.761077E3,5.46E2,8.9E2,1.03E3,1.22E3,1.4E3,1.58E3,1.76E3,3.45E3,2.24E3,2.5E3,2.8E3,3.15E3,3.6E3,4E3,4.5E3,4.9E3,6E3,7E3,8.5E3,1.12E4,2.7E1,1E0,-4.3911156E1,-3.7843212E1,-3.4221066E1,-3.1812677E1,-3.008074E1,-2.8157585E1,-2.5977987E1,-2.3827341E1,-2.2334044E1,-2.0721214E1,-1.8723963E1,-1.6549E1,-1.4254243E1,-1.2163232E1,-8.957379E0,-1.4505255E1,-4.815676E0,-1.4924996E0,1.235986E0,3.9046705E0,7.3443613E0,1.0825055E1,1.4818795E1,1.840378E1,2.3653406E1,2.8311304E1,3.26347E1,3.61862E1,4.1859966E1,4.739937E1,5.39699E1,5.9349903E1,6.853887E1,8.2379616E1,9.297414E1,1.08246925E2,1.255013E2,1.4261494E2,1.6495493E2,1.8518578E2,6.2080035E2,2.5850702E2,8.990204E2,2.0395526E2],"split_indices":[8,8,6,8,8,7,0,8,8,8,8,8,4,8,8,8,8,8,8,8,8,8,8,12,0,8,8,8,8,8,8,8,7,8,8,8,8,8,8,8,6,8,8,8,7,12,3,0,0,0,0,0,0,0,0,0,0,0,0,0,0,0,0,0,0,0,0,0,0,0,0,0,0,0,0,0,0,0,0,0,0,0,0,0,0,0,0,0,0,0,0],"split_type":[0,0,0,0,0,0,0,0,0,0,0,0,0,0,0,0,0,0,0,0,0,0,0,0,0,0,0,0,0,0,0,0,0,0,0,0,0,0,0,0,0,0,0,0,0,0,0,0,0,0,0,0,0,0,0,0,0,0,0,0,0,0,0,0,0,0,0,0,0,0,0,0,0,0,0,0,0,0,0,0,0,0,0,0,0,0,0,0,0,0,0],"sum_hessian":[1.87441E5,1.76941E5,1.05E4,8.6419E4,9.0522E4,1.0499E4,1E0,5.0367E4,3.6052E4,7.4546E4,1.5976E4,9.721E3,7.78E2,1.8205E4,3.2162E4,1.9859E4,1.6193E4,5.7844E4,1.6702E4,1.0301E4,5.675E3,6.118E3,3.603E3,7.77E2,1E0,5.524E3,1.2681E4,1.5203E4,1.6959E4,7.491E3,1.2368E4,8.038E3,8.155E3,3.3561E4,2.4283E4,9.478E3,7.224E3,5.847E3,4.454E3,2.939E3,2.736E3,3.192E3,2.926E3,2.168E3,1.435E3,6.75E2,1.02E2,1.465E3,4.059E3,6.836E3,5.845E3,7.245E3,7.958E3,9.507E3,7.452E3,2.178E3,5.313E3,7.023E3,5.345E3,2.97E3,5.068E3,7.97E3,1.85E2,1.5192E4,1.8369E4,1.2929E4,1.1354E4,4.952E3,4.526E3,4.987E3,2.237E3,4.401E3,1.446E3,2.055E3,2.399E3,1.461E3,1.478E3,2.077E3,6.59E2,2.143E3,1.049E3,1.122E3,1.804E3,1.239E3,9.29E2,8.43E2,5.92E2,2.1E1,6.54E2,5.7E1,4.5E1],"tree_param":{"num_deleted":"0","num_feature":"18","num_nodes":"91","size_leaf_vector":"1"}},{"base_weights":[2.5309913E0,-9.898259E1,1.6969655E3,-3.1696085E2,1.0845068E2,1.6731954E3,8.874734E3,-3.9694284E2,-2.0514003E2,2.8561031E1,4.8340683E2,1.4463944E3,4.0206042E3,-4.657243E2,-3.580364E2,-2.532651E2,-1.463273E2,-9.219948E0,1.590173E2,3.8533444E2,6.6129425E2,1.1607036E3,1.9447249E3,2.3072389E4,3.5993171E3,-5.2470917E2,-4.3999002E2,-3.8555798E2,-3.318127E2,-2.700704E2,-2.2460385E2,-1.753869E2,-1.2365323E2,-4.654354E1,2.578816E1,1.1153393E2,2.0339418E2,3.3002573E2,4.5888306E2,5.9461237E2,7.349098E2,9.7159875E2,1.3596597E3,1.7626056E3,2.2562712E3,1.302441E4,7.4894395E3,2.7952373E3,5.172295E3,-4.029555E1,-3.5005306E1,-3.2158085E1,-2.9857939E1,-2.7979681E1,-2.6129944E1,-2.4103786E1,-2.2163988E1,-2.0040697E1,-1.7935205E1,-1.5632948E1,-2.0993814E1,-1.2113424E1,-1.6939962E1,-9.697532E0,-8.075544E0,-5.5505586E0,-2.3597233E0,1.3453989E-1,3.0758705E0,6.49172E0,9.042769E0,1.2729868E1,1.6406271E1,2.0462406E1,2.4527563E1,2.9753859E1,3.3378807E1,3.9006973E1,4.4158794E1,5.0219776E1,5.518106E1,6.3738777E1,7.651376E1,8.662876E1,1.0060969E2,1.1647094E2,1.324588E2,1.4484872E2,1.6206906E2,-5.0228906E0,1.335202E3,1.9821735E2,2.3566711E1,8.631876E2,3.1474136E2],"categories":[],"categories_nodes":[],"categories_segments":[],"categories_sizes":[],"default_left":[0,0,0,0,0,0,0,0,0,0,0,0,0,0,0,0,0,0,0,0,0,0,0,0,0,0,0,0,0,0,0,0,0,0,0,0,0,0,0,0,0,0,0,0,0,0,0,0,0,0,0,0,0,0,0,0,0,0,0,0,0,0,0,0,0,0,0,0,0,0,0,0,0,0,0,0,0,0,0,0,0,0,0,0,0,0,0,0,0,0,0,0,0,0,0],"id":17,"left_children":[1,3,5,7,9,11,-1,13,15,17,19,21,23,25,27,29,31,33,35,37,39,41,43,45,47,49,51,53,55,57,59,61,63,65,67,69,71,73,75,77,79,81,83,85,87,89,-1,91,93,-1,-1,-1,-1,-1,-1,-1,-1,-1,-1,-1,-1,-1,-1,-1,-1,-1,-1,-1,-1,-1,-1,-1,-1,-1,-1,-1,-1,-1,-1,-1,-1,-1,-1,-1,-1,-1,-1,-1,-1,-1,-1,-1,-1,-1,-1],"loss_changes":[3.2247906E10,7.9979213E9,3.12956E10,7.7130035E8,2.7149384E9,5.6354406E9,0E0,1.3438976E8,1.0176538E8,3.6825917E8,2.7746534E8,1.3735895E9,7.4054646E9,2.733952E7,2.3053824E7,9.466752E6,1.0645248E7,7.570465E7,3.533341E7,4.160128E7,2.7327488E7,2.2987622E8,1.9574272E8,1.5470942E10,1.1415685E9,6.628992E6,3.106816E6,2.572032E6,3.020928E6,2.728192E6,6.36096E5,1.062784E6,1.10616E6,1.178308E7,1.2952452E7,2.677488E6,5.744224E6,4.399552E6,2.471872E6,3.673344E6,1.939968E6,2.2388736E7,2.6579456E7,2.534912E7,9.4976E6,1.5067489E9,0E0,5.3426176E7,1.4350853E9,0E0,0E0,0E0,0E0,0E0,0E0,0E0,0E0,0E0,0E0,0E0,0E0,0E0,0E0,0E0,0E0,0E0,0E0,0E0,0E0,0E0,0E0,0E0,0E0,0E0,0E0,0E0,0E0,0E0,0E0,0E0,0E0,0E0,0E0,0E0,0E0,0E0,0E0,0E0,0E0,0E0,0E0,0E0,0E0,0E0,0E0],"parents":[2147483647,0,0,1,1,2,2,3,3,4,4,5,5,7,7,8,8,9,9,10,10,11,11,12,12,13,13,14,14,15,15,16,16,17,17,18,18,19,19,20,20,21,21,22,22,23,23,24,24,25,25,26,26,27,27,28,28,29,29,30,30,31,31,32,32,33,33,34,34,35,35,36,36,37,37,38,38,39,39,40,40,41,41,42,42,43,43,44,44,45,45,47,47,48,48],"right_children":[2,4,6,8,10,12,-1,14,16,18,20,22,24,26,28,30,32,34,36,38,40,42,44,46,48,50,52,54,56,58,60,62,64,66,68,70,72,74,76,78,80,82,84,86,88,90,-1,92,94,-1,-1,-1,-1,-1,-1,-1,-1,-1,-1,-1,-1,-1,-1,-1,-1,-1,-1,-1,-1,-1,-1,-1,-1,-1,-1,-1,-1,-1,-1,-1,-1,-1,-1,-1,-1,-1,-1,-1,-1,-1,-1,-1,-1,-1,-1],"split_conditions":[5.2E3,2.025E3,4.2E5,1.32E3,3.3E3,1.1E4,8.874734E3,9.6E2,1.7E3,2.62E3,4.15E3,7.75E3,4E0,7.5E2,1.15E3,1.53E3,1.85E3,2.325E3,2.9E3,3.75E3,4.65E3,6.3E3,9.5E3,1.9462858E3,1.103E3,6E2,8.5E2,1.03E3,1.22E3,1.45E3,2.73E3,2.73E3,1.95E3,2.17E3,2.425E3,2.75E3,3.025E3,3.5E3,3.9E3,4.5E3,4.9E3,6E3,7E3,8.5E3,1E4,1.99E2,7.4894395E3,4.4E1,9.7E1,-4.029555E1,-3.5005306E1,-3.2158085E1,-2.9857939E1,-2.7979681E1,-2.6129944E1,-2.4103786E1,-2.2163988E1,-2.0040697E1,-1.7935205E1,-1.5632948E1,-2.0993814E1,-1.2113424E1,-1.6939962E1,-9.697532E0,-8.075544E0,-5.5505586E0,-2.3597233E0,1.3453989E-1,3.0758705E0,6.49172E0,9.042769E0,1.2729868E1,1.6406271E1,2.0462406E1,2.4527563E1,2.9753859E1,3.3378807E1,3.9006973E1,4.4158794E1,5.0219776E1,5.518106E1,6.3738777E1,7.651376E1,8.662876E1,1.0060969E2,1.1647094E2,1.324588E2,1.4484872E2,1.6206906E2,-5.0228906E0,1.335202E3,1.9821735E2,2.3566711E1,8.631876E2,3.1474136E2],"split_indices":[8,8,6,8,8,6,0,8,8,8,8,8,0,8,8,8,8,8,8,8,8,8,8,16,2,8,8,8,8,8,7,7,8,8,8,8,8,8,8,8,6,8,8,8,8,1,0,12,1,0,0,0,0,0,0,0,0,0,0,0,0,0,0,0,0,0,0,0,0,0,0,0,0,0,0,0,0,0,0,0,0,0,0,0,0,0,0,0,0,0,0,0,0,0,0],"split_type":[0,0,0,0,0,0,0,0,0,0,0,0,0,0,0,0,0,0,0,0,0,0,0,0,0,0,0,0,0,0,0,0,0,0,0,0,0,0,0,0,0,0,0,0,0,0,0,0,0,0,0,0,0,0,0,0,0,0,0,0,0,0,0,0,0,0,0,0,0,0,0,0,0,0,0,0,0,0,0,0,0,0,0,0,0,0,0,0,0,0,0,0,0,0,0],"sum_hessian":[1.87477E5,1.76881E5,1.0596E4,8.6248E4,9.0633E4,1.0595E4,1E0,5.0281E4,3.5967E4,7.4715E4,1.5918E4,9.663E3,9.32E2,1.8162E4,3.2119E4,1.9779E4,1.6188E4,5.7937E4,1.6778E4,1.0263E4,5.655E3,6.144E3,3.519E3,1.9E1,9.13E2,5.511E3,1.2651E4,1.5665E4,1.6454E4,1.2463E4,7.316E3,7.092E3,9.096E3,2.8041E4,2.9896E4,8.107E3,8.671E3,5.861E3,4.402E3,2.972E3,2.683E3,3.153E3,2.991E3,2.225E3,1.294E3,1.8E1,1E0,6.06E2,3.07E2,1.789E3,3.722E3,5.164E3,7.487E3,7.261E3,8.404E3,9.004E3,7.45E3,5.731E3,6.732E3,7.198E3,1.18E2,6.855E3,2.37E2,3.248E3,5.848E3,7.893E3,2.0148E4,1.2916E4,1.698E4,3.929E3,4.178E3,5.119E3,3.552E3,2.061E3,3.8E3,1.535E3,2.867E3,1.471E3,1.501E3,2.032E3,6.51E2,2.104E3,1.049E3,1.169E3,1.822E3,1.271E3,9.54E2,3.19E2,9.75E2,6E0,1.2E1,5.97E2,9E0,2.5E1,2.82E2],"tree_param":{"num_deleted":"0","num_feature":"18","num_nodes":"95","size_leaf_vector":"1"}},{"base_weights":[5.9292465E-1,-9.6363335E1,1.4519331E3,-3.002527E2,7.899417E1,1.2636455E3,4.041429E3,-3.570163E2,-1.970117E2,4.385196E0,3.5660788E2,8.767002E2,1.6053986E3,2.0413502E4,3.593162E3,-4.0585745E2,-3.2096887E2,-2.3470103E2,-1.4978905E2,-3.9050053E1,6.45406E1,2.6425232E2,5.08394E2,7.6358484E2,1.0321553E3,1.40429E3,1.9312377E3,1.110945E4,7.227309E3,2.6489006E3,5.115448E3,-4.372439E2,-3.8483612E2,-3.4882077E2,-3.0170926E2,-2.567974E2,-2.1531085E2,-1.6816388E2,-1.27397224E2,-8.2539154E1,-1.9951149E1,2.9418005E1,1.07062805E2,2.0899901E2,3.176832E2,4.1545184E2,5.762641E2,7.771955E2,5.488898E2,9.738968E2,1.1472405E3,1.319885E3,1.5317465E3,1.8211604E3,2.1671892E3,1.7281738E4,-3.0919858E2,2.7161824E3,-3.1302798E3,1.2190675E4,4.2716606E3,-3.0855394E1,8.081441E-1,-2.7502882E1,-2.6059443E1,-2.5493074E1,-2.3566324E1,-2.1859331E1,-1.9869577E1,-1.678156E1,-1.956355E1,-1.615961E1,-1.4077515E1,-1.2365225E1,-6.2060614E0,-9.473099E0,-7.4504995E0,-7.483704E0,-3.9186704E0,-3.2332418E0,-3.9338866E-1,4.4901228E-1,2.6950035E0,5.6844034E0,1.0249066E1,1.2970028E1,2.0116821E1,2.0292923E1,2.7539932E1,2.7379425E1,3.236689E1,3.7435917E1,4.5234074E1,5.087144E1,5.7735283E1,1.5524449E1,4.3422985E1,7.190763E1,6.049012E1,7.1247604E1,8.3101654E1,8.5386E1,9.954741E1,1.1495129E2,1.041868E2,1.2297739E2,1.3935263E2,1.5557309E2,1.282925E2,4.24029E2,1.3140267E3,-8.163593E0,-4.138988E1,2.4535165E2,1.7662227E2,-2.59607E2,-8.341296E0,-4.161582E0,2.0409873E3,4.533648E2,5.4229427E1],"categories":[],"categories_nodes":[],"categories_segments":[],"categories_sizes":[],"default_left":[0,0,0,0,0,0,0,0,0,0,0,0,0,0,0,0,0,0,0,0,0,0,0,0,0,0,0,0,0,0,0,0,0,0,0,0,0,0,0,0,0,0,0,0,0,0,0,0,0,0,0,0,0,0,0,0,0,0,0,0,0,0,0,0,0,0,0,0,0,0,0,0,0,0,0,0,0,0,0,0,0,0,0,0,0,0,0,0,0,0,0,0,0,0,0,0,0,0,0,0,0,0,0,0,0,0,0,0,0,0,0,0,0,0,0,0,0,0,0,0,0],"id":18,"left_children":[1,3,5,7,9,11,13,15,17,19,21,23,25,27,29,31,33,35,37,39,41,43,45,47,49,51,53,55,-1,57,59,61,63,65,67,69,71,73,75,77,79,81,83,85,87,89,91,93,95,97,99,101,103,105,107,109,111,113,115,117,119,-1,-1,-1,-1,-1,-1,-1,-1,-1,-1,-1,-1,-1,-1,-1,-1,-1,-1,-1,-1,-1,-1,-1,-1,-1,-1,-1,-1,-1,-1,-1,-1,-1,-1,-1,-1,-1,-1,-1,-1,-1,-1,-1,-1,-1,-1,-1,-1,-1,-1,-1,-1,-1,-1,-1,-1,-1,-1,-1,-1],"loss_changes":[2.6403482E10,6.2885683E9,5.7238405E9,4.7653325E8,1.95857E9,1.4472806E9,5.768539E9,9.225523E7,5.1318784E7,1.9474197E8,2.8065203E8,8.959539E7,3.7840384E8,1.5037464E10,1.1018998E9,1.4531072E7,1.6092416E7,6.8192E6,5.249216E6,3.5947308E7,4.6669904E7,3.670368E7,4.7549824E7,8.278528E6,1.337856E7,3.6706816E7,5.363507E7,1.4149274E9,0E0,1.9553178E8,1.7150413E9,1.4220544E7,1.205504E6,2.182656E6,3.281408E6,2.832992E6,1.841312E6,4.727264E6,